/* 1 1 */


/* Organism #0 Fitness: 1.173720 Time: 0 */
genomestart 0
trait 1 0.724744 0.000000 0.542497 0.196539 0.626209 0.000000 0.747246 0.362682 
trait 2 0.200000 0.000000 0.000000 0.000000 0.000000 0.000000 0.000000 0.000000 
trait 3 0.300000 0.000000 0.264626 0.000000 0.000000 0.204260 0.000000 0.000000 
node 1 1 1 3
node 2 2 1 1
node 3 2 1 1
node 4 3 1 1
node 5 1 1 1
node 6 3 1 1
node 7 1 1 1
node 8 2 1 1
node 9 2 1 1
node 10 1 1 1
node 11 1 1 1
node 12 2 1 1
node 13 2 1 1
node 14 2 1 1
node 15 3 1 1
node 16 3 1 1
node 17 1 1 1
node 18 3 1 1
node 19 1 1 1
node 20 1 1 1
node 21 3 1 1
node 22 2 1 1
node 23 1 1 1
node 24 2 1 1
node 25 3 1 1
node 26 1 1 1
node 27 2 1 1
node 28 3 1 1
node 29 2 1 1
node 30 1 1 1
node 31 2 1 1
node 32 1 1 1
node 33 3 1 1
node 34 2 1 1
node 35 1 1 1
node 36 2 1 1
node 37 2 1 1
node 38 2 1 1
node 39 3 0 2
node 40 2 0 2
node 41 3 0 2
node 42 3 0 2
node 43 2 0 2
node 44 3 0 2
node 45 3 0 2
node 46 3 0 2
node 47 1 0 2
node 48 3 0 2
node 49 2 0 2
node 50 1 0 2
node 51 2 0 2
node 52 3 0 2
node 53 1 0 2
node 54 2 0 2
node 55 3 0 2
node 56 2 0 2
node 57 1 0 2
node 58 1 0 2
node 60 1 0 0
node 102 1 0 0
node 106 1 0 0
node 110 1 0 0
gene 3 1 39 6.52882 0 1 6.52882 1
gene 3 1 40 -4.44697 0 2 -4.44697 1
gene 3 1 41 0.833918 0 3 0.833918 1
gene 1 1 42 4.53192 0 4 4.53192 1
gene 1 1 43 -5.81103 0 5 -5.81103 1
gene 2 1 44 8 0 6 8 1
gene 2 1 45 1.78472 0 7 1.78472 1
gene 1 1 46 -0.392422 0 8 -0.392422 1
gene 2 1 47 -6.38412 0 9 -6.38412 1
gene 3 1 48 -5.12015 0 10 -5.12015 1
gene 3 1 49 0.0904111 0 11 0.0904111 1
gene 3 1 50 -2.01224 0 12 -2.01224 1
gene 2 1 51 2.92589 0 13 2.92589 1
gene 3 1 52 4.45425 0 14 4.45425 1
gene 1 1 53 -0.851314 0 15 -0.851314 1
gene 1 1 54 0.316782 0 16 0.316782 1
gene 2 1 55 -6.89721 0 17 -6.89721 1
gene 3 1 56 2.49016 0 18 2.49016 1
gene 2 1 57 -2.58103 0 19 -2.58103 1
gene 1 1 58 -0.478378 0 20 -0.478378 1
gene 2 2 39 1.01253 0 21 1.01253 1
gene 2 2 40 -1.57157 0 22 -1.57157 1
gene 3 2 41 1.20396 0 23 1.20396 1
gene 2 2 42 -0.455 0 24 -0.455 1
gene 1 2 43 -0.00740074 0 25 -0.00740074 1
gene 3 2 44 1.73788 0 26 1.73788 1
gene 2 2 45 -0.663396 0 27 -0.663396 1
gene 3 2 46 -2.10837 0 28 -2.10837 1
gene 2 2 47 1.02321 0 29 1.02321 1
gene 1 2 48 -3.30878 0 30 -3.30878 1
gene 1 2 49 2.72286 0 31 2.72286 1
gene 3 2 50 -2.02513 0 32 -2.02513 1
gene 1 2 51 5.94633 0 33 5.94633 1
gene 2 2 52 -8 0 34 -8 1
gene 1 2 53 1.245 0 35 1.245 1
gene 3 2 54 -0.726417 0 36 -0.726417 1
gene 3 2 55 -6.25906 0 37 -6.25906 1
gene 3 2 56 0.791345 0 38 0.791345 1
gene 2 2 57 5.21153 0 39 5.21153 1
gene 3 2 58 -0.945769 0 40 -0.945769 1
gene 1 3 39 0.499779 0 41 0.499779 1
gene 2 3 40 1.99324 0 42 1.99324 1
gene 3 3 41 -6.61992 0 43 -6.61992 1
gene 2 3 42 8 0 44 8 1
gene 3 3 43 -5.11721 0 45 -5.11721 1
gene 3 3 44 2.71607 0 46 2.71607 1
gene 3 3 45 -2.83296 0 47 -2.83296 1
gene 1 3 46 -2.22739 0 48 -2.22739 1
gene 2 3 47 -4.25855 0 49 -4.25855 1
gene 2 3 48 -1.19808 0 50 -1.19808 1
gene 1 3 49 -0.649358 0 51 -0.649358 1
gene 1 3 50 4.49055 0 52 4.49055 1
gene 3 3 51 -6.13883 0 53 -6.13883 1
gene 1 3 52 2.94423 0 54 2.94423 1
gene 3 3 53 6.84538 0 55 6.84538 1
gene 1 3 54 -0.356094 0 56 -0.356094 1
gene 2 3 55 -3.31088 0 57 -3.31088 1
gene 1 3 56 7.75913 0 58 7.75913 1
gene 1 3 57 -7.97308 0 59 -7.97308 1
gene 1 3 58 3.00588 0 60 3.00588 1
gene 1 4 39 7.14309 0 61 7.14309 1
gene 3 4 40 -7.71653 0 62 -7.71653 1
gene 2 4 41 -1.50639 0 63 -1.50639 1
gene 3 4 42 -0.274743 0 64 -0.274743 1
gene 2 4 43 -2.29088 0 65 -2.29088 1
gene 1 4 44 1.85255 0 66 1.85255 1
gene 3 4 45 2.93331 0 67 2.93331 1
gene 1 4 46 -1.77145 0 68 -1.77145 1
gene 2 4 47 -1.23248 0 69 -1.23248 1
gene 3 4 48 -0.683729 0 70 -0.683729 1
gene 3 4 49 0.640736 0 71 0.640736 1
gene 2 4 50 8 0 72 8 1
gene 2 4 51 -2.02673 0 73 -2.02673 1
gene 3 4 52 1.57598 0 74 1.57598 1
gene 2 4 53 1.52783 0 75 1.52783 1
gene 3 4 54 -2.20138 0 76 -2.20138 1
gene 1 4 55 3.85861 0 77 3.85861 1
gene 2 4 56 -7.38543 0 78 -7.38543 1
gene 1 4 57 3.21749 0 79 3.21749 1
gene 3 4 58 3.50314 0 80 3.50314 1
gene 3 5 39 5.07019 0 81 5.07019 1
gene 2 5 40 -3.28669 0 82 -3.28669 1
gene 3 5 41 -3.19941 0 83 -3.19941 1
gene 2 5 42 -1.09256 0 84 -1.09256 1
gene 1 5 43 3.94338 0 85 3.94338 1
gene 3 5 44 2.19893 0 86 2.19893 1
gene 2 5 45 -8 0 87 -8 1
gene 1 5 46 -1.53577 0 88 -1.53577 1
gene 1 5 47 0.169053 0 89 0.169053 1
gene 2 5 48 1.46878 0 90 1.46878 1
gene 2 5 49 -7.57831 0 91 -7.57831 1
gene 1 5 50 1.97027 0 92 1.97027 1
gene 3 5 51 -0.715812 0 93 -0.715812 1
gene 1 5 52 3.27517 0 94 3.27517 1
gene 2 5 53 -1.86239 0 95 -1.86239 1
gene 1 5 54 1.09134 0 96 1.09134 1
gene 2 5 55 -2.52171 0 97 -2.52171 1
gene 2 5 56 0.18601 0 98 0.18601 1
gene 1 5 57 -2.12416 0 99 -2.12416 1
gene 2 5 58 -1.8466 0 100 -1.8466 1
gene 1 6 39 -3.63659 0 101 -3.63659 1
gene 2 6 40 -8 0 102 -8 1
gene 2 6 41 4.21283 0 103 4.21283 1
gene 3 6 42 -7.87213 0 104 -7.87213 1
gene 1 6 43 -2.27813 0 105 -2.27813 1
gene 2 6 44 -1.02199 0 106 -1.02199 1
gene 3 6 45 3.6054 0 107 3.6054 1
gene 3 6 46 -8 0 108 -8 1
gene 2 6 47 -8 0 109 -8 1
gene 2 6 48 -3.53351 0 110 -3.53351 1
gene 1 6 49 4.53486 0 111 4.53486 1
gene 2 6 50 0.785203 0 112 0.785203 1
gene 2 6 51 1.34548 0 113 1.34548 1
gene 3 6 52 1.9214 0 114 1.9214 1
gene 3 6 53 2.83555 0 115 2.83555 1
gene 1 6 54 0.645924 0 116 0.645924 1
gene 2 6 55 0.411161 0 117 0.411161 1
gene 3 6 56 7.56706 0 118 7.56706 1
gene 2 6 57 -3.15401 0 119 -3.15401 1
gene 1 6 58 3.30058 0 120 3.30058 1
gene 2 7 39 -2.12569 0 121 -2.12569 1
gene 2 7 40 -1.21853 0 122 -1.21853 1
gene 3 7 41 0.892666 0 123 0.892666 1
gene 2 7 42 -2.56142 0 124 -2.56142 1
gene 3 7 43 3.01538 0 125 3.01538 1
gene 2 7 44 -0.57268 0 126 -0.57268 1
gene 3 7 45 2.09292 0 127 2.09292 1
gene 2 7 46 4.20797 0 128 4.20797 1
gene 1 7 47 -7.83833 0 129 -7.83833 1
gene 3 7 48 0.440153 0 130 0.440153 1
gene 1 7 49 0.514847 0 131 0.514847 1
gene 1 7 50 2.09014 0 132 2.09014 1
gene 2 7 51 -5.43168 0 133 -5.43168 0
gene 3 7 52 -8 0 134 -8 1
gene 1 7 53 2.78863 0 135 2.78863 1
gene 3 7 54 -0.281686 0 136 -0.281686 1
gene 1 7 55 0.512406 0 137 0.512406 1
gene 2 7 56 -1.98996 0 138 -1.98996 1
gene 2 7 57 2.00598 0 139 2.00598 1
gene 3 7 58 -4.37909 0 140 -4.37909 1
gene 1 8 39 7.70544 0 141 7.70544 1
gene 2 8 40 2.256 0 142 2.256 1
gene 1 8 41 -2.69089 0 143 -2.69089 1
gene 2 8 42 -0.867645 0 144 -0.867645 1
gene 3 8 43 3.21623 0 145 3.21623 1
gene 1 8 44 2.0085 0 146 2.0085 1
gene 3 8 45 1.16314 0 147 1.16314 1
gene 2 8 46 -0.579417 0 148 -0.579417 1
gene 3 8 47 -0.346767 0 149 -0.346767 1
gene 1 8 48 2.79565 0 150 2.79565 1
gene 1 8 49 2.88049 0 151 2.88049 1
gene 3 8 50 3.84201 0 152 3.84201 1
gene 2 8 51 0.84582 0 153 0.84582 1
gene 1 8 52 -1.39103 0 154 -1.39103 1
gene 3 8 53 1.77793 0 155 1.77793 1
gene 1 8 54 0.895642 0 156 0.895642 1
gene 1 8 55 -6.26225 0 157 -6.26225 1
gene 3 8 56 -3.98231 0 158 -3.98231 1
gene 2 8 57 1.73631 0 159 1.73631 1
gene 1 8 58 -2.51572 0 160 -2.51572 1
gene 1 9 39 -8 0 161 -8 1
gene 2 9 40 3.18856 0 162 3.18856 1
gene 1 9 41 3.15199 0 163 3.15199 1
gene 1 9 42 -1.54447 0 164 -1.54447 1
gene 1 9 43 6.72875 0 165 6.72875 1
gene 3 9 44 2.92604 0 166 2.92604 1
gene 3 9 45 7.70382 0 167 7.70382 1
gene 3 9 46 -6.11136 0 168 -6.11136 1
gene 2 9 47 3.19651 0 169 3.19651 1
gene 2 9 48 1.18274 0 170 1.18274 1
gene 3 9 49 -5.41948 0 171 -5.41948 1
gene 1 9 50 -0.680582 0 172 -0.680582 1
gene 1 9 51 3.64864 0 173 3.64864 1
gene 2 9 52 0.508209 0 174 0.508209 1
gene 1 9 53 -0.212714 0 175 -0.212714 1
gene 1 9 54 -0.732063 0 176 -0.732063 1
gene 2 9 55 -2.96991 0 177 -2.96991 1
gene 2 9 56 8 0 178 8 1
gene 2 9 57 -3.00874 0 179 -3.00874 1
gene 3 9 58 -7.3044 0 180 -7.3044 1
gene 2 10 39 -0.0843837 0 181 -0.0843837 1
gene 1 10 40 -3.46449 0 182 -3.46449 1
gene 2 10 41 1.22791 0 183 1.22791 1
gene 3 10 42 3.9367 0 184 3.9367 1
gene 1 10 43 1.22608 0 185 1.22608 1
gene 2 10 44 2.60604 0 186 2.60604 1
gene 3 10 45 -1.80937 0 187 -1.80937 1
gene 1 10 46 2.41188 0 188 2.41188 1
gene 2 10 47 3.12822 0 189 3.12822 1
gene 1 10 48 -1.12011 0 190 -1.12011 1
gene 2 10 49 0.772271 0 191 0.772271 1
gene 1 10 50 -4.42816 0 192 -4.42816 1
gene 3 10 51 -6.90085 0 193 -6.90085 1
gene 3 10 52 -4.38264 0 194 -4.38264 1
gene 2 10 53 -0.348407 0 195 -0.348407 1
gene 2 10 54 5.69239 0 196 5.69239 1
gene 3 10 55 -4.25161 0 197 -4.25161 1
gene 3 10 56 3.25392 0 198 3.25392 1
gene 2 10 57 2.81892 0 199 2.81892 1
gene 1 10 58 -0.776276 0 200 -0.776276 1
gene 1 11 39 -3.4302 0 201 -3.4302 1
gene 3 11 40 1.33236 0 202 1.33236 1
gene 1 11 41 -3.8324 0 203 -3.8324 1
gene 3 11 42 -0.992004 0 204 -0.992004 1
gene 2 11 43 -2.72523 0 205 -2.72523 1
gene 3 11 44 6.0881 0 206 6.0881 1
gene 2 11 45 -3.55991 0 207 -3.55991 1
gene 2 11 46 -0.627232 0 208 -0.627232 1
gene 3 11 47 7.1857 0 209 7.1857 1
gene 2 11 48 -2.19863 0 210 -2.19863 1
gene 2 11 49 -1.38672 0 211 -1.38672 1
gene 1 11 50 1.05983 0 212 1.05983 1
gene 3 11 51 -5.62761 0 213 -5.62761 1
gene 1 11 52 -4.56827 0 214 -4.56827 1
gene 3 11 53 2.65172 0 215 2.65172 1
gene 3 11 54 -0.0233467 0 216 -0.0233467 1
gene 2 11 55 1.70966 0 217 1.70966 1
gene 2 11 56 1.26408 0 218 1.26408 1
gene 3 11 57 -0.321436 0 219 -0.321436 1
gene 1 11 58 2.20794 0 220 2.20794 1
gene 1 12 39 -5.78191 0 221 -5.78191 1
gene 3 12 40 -1.16718 0 222 -1.16718 1
gene 3 12 41 -4.03165 0 223 -4.03165 1
gene 2 12 42 -2.96846 0 224 -2.96846 1
gene 1 12 43 -7.14167 0 225 -7.14167 1
gene 2 12 44 -6.93872 0 226 -6.93872 1
gene 3 12 45 4.22559 0 227 4.22559 1
gene 2 12 46 6.77164 0 228 6.77164 1
gene 1 12 47 2.15255 0 229 2.15255 1
gene 1 12 48 -1.14689 0 230 -1.14689 1
gene 2 12 49 2.46429 0 231 2.46429 1
gene 2 12 50 -4.87049 0 232 -4.87049 1
gene 1 12 51 3.62813 0 233 3.62813 1
gene 2 12 52 -0.612751 0 234 -0.612751 1
gene 1 12 53 -0.980789 0 235 -0.980789 1
gene 3 12 54 -0.435041 0 236 -0.435041 1
gene 2 12 55 6.88302 0 237 6.88302 1
gene 2 12 56 -5.77456 0 238 -5.77456 1
gene 3 12 57 -3.14119 0 239 -3.14119 1
gene 3 12 58 -2.68502 0 240 -2.68502 1
gene 3 13 39 2.48032 0 241 2.48032 1
gene 2 13 40 7.86153 0 242 7.86153 1
gene 2 13 41 2.21603 0 243 2.21603 1
gene 3 13 42 -3.28654 0 244 -3.28654 1
gene 1 13 43 1.92202 0 245 1.92202 1
gene 3 13 44 -5.79211 0 246 -5.79211 1
gene 2 13 45 -3.69058 0 247 -3.69058 1
gene 2 13 46 4.13793 0 248 4.13793 1
gene 3 13 47 5.25647 0 249 5.25647 1
gene 3 13 48 2.54616 0 250 2.54616 1
gene 3 13 49 0.275613 0 251 0.275613 1
gene 2 13 50 0.245064 0 252 0.245064 1
gene 1 13 51 -0.663968 0 253 -0.663968 1
gene 3 13 52 -1.84767 0 254 -1.84767 1
gene 2 13 53 0.859706 0 255 0.859706 1
gene 2 13 54 3.39213 0 256 3.39213 1
gene 1 13 55 6.93457 0 257 6.93457 1
gene 1 13 56 -5.00622 0 258 -5.00622 1
gene 3 13 57 2.37709 0 259 2.37709 1
gene 2 13 58 4.69562 0 260 4.69562 1
gene 1 14 39 5.24663 0 261 5.24663 1
gene 2 14 40 1.88433 0 262 1.88433 1
gene 1 14 41 -0.155721 0 263 -0.155721 1
gene 1 14 42 -1.8025 0 264 -1.8025 1
gene 2 14 43 0.232017 0 265 0.232017 1
gene 2 14 44 2.29308 0 266 2.29308 1
gene 1 14 45 8 0 267 8 1
gene 3 14 46 8 0 268 8 1
gene 2 14 47 6.70309 0 269 6.70309 1
gene 2 14 48 -3.68946 0 270 -3.68946 1
gene 2 14 49 -7.33882 0 271 -7.33882 1
gene 1 14 50 1.69904 0 272 1.69904 1
gene 1 14 51 -2.33528 0 273 -2.33528 1
gene 2 14 52 -2.89605 0 274 -2.89605 1
gene 1 14 53 -1.93449 0 275 -1.93449 1
gene 2 14 54 0.0830409 0 276 0.0830409 1
gene 3 14 55 4.17585 0 277 4.17585 1
gene 1 14 56 3.4769 0 278 3.4769 1
gene 3 14 57 4.69298 0 279 4.69298 1
gene 1 14 58 -5.80898 0 280 -5.80898 1
gene 3 15 39 1.49792 0 281 1.49792 1
gene 1 15 40 -0.537484 0 282 -0.537484 1
gene 3 15 41 4.83879 0 283 4.83879 1
gene 1 15 42 1.08516 0 284 1.08516 1
gene 2 15 43 1.82611 0 285 1.82611 1
gene 3 15 44 2.56561 0 286 2.56561 1
gene 1 15 45 -1.11415 0 287 -1.11415 1
gene 1 15 46 0.895718 0 288 0.895718 1
gene 1 15 47 -2.82289 0 289 -2.82289 1
gene 2 15 48 -0.13657 0 290 -0.13657 1
gene 1 15 49 -6.4425 0 291 -6.4425 1
gene 1 15 50 -3.73012 0 292 -3.73012 1
gene 1 15 51 4.64583 0 293 4.64583 1
gene 2 15 52 2.09075 0 294 2.09075 1
gene 1 15 53 2.47287 0 295 2.47287 1
gene 3 15 54 3.48581 0 296 3.48581 1
gene 3 15 55 -1.59909 0 297 -1.59909 1
gene 2 15 56 1.20968 0 298 1.20968 1
gene 3 15 57 -3.86525 0 299 -3.86525 1
gene 3 15 58 0.365841 0 300 0.365841 1
gene 1 16 39 -7.43286 0 301 -7.43286 1
gene 2 16 40 8 0 302 8 1
gene 3 16 41 -0.0587481 0 303 -0.0587481 1
gene 1 16 42 -8 0 304 -8 1
gene 1 16 43 -0.319376 0 305 -0.319376 1
gene 3 16 44 -1.4668 0 306 -1.4668 1
gene 2 16 45 -1.34518 0 307 -1.34518 1
gene 1 16 46 -2.85497 0 308 -2.85497 1
gene 1 16 47 -0.195853 0 309 -0.195853 1
gene 2 16 48 -2.02139 0 310 -2.02139 1
gene 1 16 49 -3.63918 0 311 -3.63918 1
gene 3 16 50 4.00243 0 312 4.00243 1
gene 1 16 51 0.972091 0 313 0.972091 1
gene 1 16 52 -0.52044 0 314 -0.52044 1
gene 1 16 53 -1.17695 0 315 -1.17695 1
gene 1 16 54 -8 0 316 -8 1
gene 1 16 55 2.95335 0 317 2.95335 1
gene 2 16 56 -3.91392 0 318 -3.91392 1
gene 1 16 57 -3.68609 0 319 -3.68609 1
gene 2 16 58 1.79904 0 320 1.79904 1
gene 3 17 39 4.05103 0 321 4.05103 1
gene 3 17 40 0.467849 0 322 0.467849 1
gene 1 17 41 -8 0 323 -8 1
gene 1 17 42 1.38867 0 324 1.38867 1
gene 3 17 43 2.15026 0 325 2.15026 1
gene 2 17 44 -0.921812 0 326 -0.921812 1
gene 1 17 45 -0.734596 0 327 -0.734596 1
gene 2 17 46 -2.87479 0 328 -2.87479 1
gene 3 17 47 2.22732 0 329 2.22732 1
gene 3 17 48 -4.55496 0 330 -4.55496 1
gene 1 17 49 -2.90397 0 331 -2.90397 1
gene 2 17 50 1.83134 0 332 1.83134 1
gene 2 17 51 -6.06528 0 333 -6.06528 1
gene 1 17 52 8 0 334 8 1
gene 3 17 53 -2.09685 0 335 -2.09685 1
gene 3 17 54 3.61721 0 336 3.61721 1
gene 2 17 55 8 0 337 8 1
gene 3 17 56 0.520569 0 338 0.520569 1
gene 3 17 57 -2.93794 0 339 -2.93794 1
gene 1 17 58 -1.12484 0 340 -1.12484 1
gene 3 18 39 -2.08991 0 341 -2.08991 1
gene 3 18 40 5.89064 0 342 5.89064 1
gene 1 18 41 2.41127 0 343 2.41127 1
gene 3 18 42 6.49223 0 344 6.49223 1
gene 3 18 43 -3.96153 0 345 -3.96153 1
gene 2 18 44 -1.513 0 346 -1.513 1
gene 2 18 45 1.20449 0 347 1.20449 1
gene 3 18 46 1.12575 0 348 1.12575 1
gene 2 18 47 -1.30657 0 349 -1.30657 1
gene 3 18 48 -3.93571 0 350 -3.93571 1
gene 1 18 49 4.62558 0 351 4.62558 1
gene 3 18 50 0.674078 0 352 0.674078 1
gene 1 18 51 2.86645 0 353 2.86645 1
gene 2 18 52 3.15693 0 354 3.15693 1
gene 2 18 53 -3.20032 0 355 -3.20032 1
gene 2 18 54 3.05765 0 356 3.05765 1
gene 3 18 55 8 0 357 8 1
gene 2 18 56 -6.84228 0 358 -6.84228 1
gene 3 18 57 1.79442 0 359 1.79442 1
gene 1 18 58 1.1795 0 360 1.1795 1
gene 2 19 39 2.14595 0 361 2.14595 1
gene 1 19 40 6.41404 0 362 6.41404 1
gene 2 19 41 -0.0129704 0 363 -0.0129704 1
gene 1 19 42 2.23632 0 364 2.23632 1
gene 3 19 43 -3.46465 0 365 -3.46465 1
gene 3 19 44 2.06084 0 366 2.06084 1
gene 1 19 45 2.91375 0 367 2.91375 1
gene 2 19 46 0.695776 0 368 0.695776 1
gene 1 19 47 -5.85055 0 369 -5.85055 1
gene 3 19 48 -2.004 0 370 -2.004 1
gene 2 19 49 -8 0 371 -8 1
gene 3 19 50 -5.44855 0 372 -5.44855 1
gene 2 19 51 2.56447 0 373 2.56447 1
gene 2 19 52 -6.71647 0 374 -6.71647 1
gene 2 19 53 2.1675 0 375 2.1675 1
gene 1 19 54 -1.37631 0 376 -1.37631 1
gene 1 19 55 -1.72819 0 377 -1.72819 1
gene 3 19 56 -3.71178 0 378 -3.71178 1
gene 1 19 57 -8 0 379 -8 1
gene 3 19 58 0.122532 0 380 0.122532 1
gene 3 20 39 1.10027 0 381 1.10027 1
gene 1 20 40 2.15354 0 382 2.15354 1
gene 2 20 41 6.98122 0 383 6.98122 1
gene 1 20 42 3.63249 0 384 3.63249 1
gene 1 20 43 -3.72059 0 385 -3.72059 1
gene 3 20 44 -3.30271 0 386 -3.30271 1
gene 1 20 45 -0.863216 0 387 -0.863216 1
gene 3 20 46 7.22961 0 388 7.22961 1
gene 3 20 47 8 0 389 8 1
gene 3 20 48 -4.15326 0 390 -4.15326 1
gene 1 20 49 5.4353 0 391 5.4353 1
gene 2 20 50 3.96168 0 392 3.96168 1
gene 2 20 51 -0.231445 0 393 -0.231445 1
gene 1 20 52 1.83897 0 394 1.83897 1
gene 2 20 53 -0.71419 0 395 -0.71419 1
gene 3 20 54 -0.338374 0 396 -0.338374 1
gene 3 20 55 -3.46255 0 397 -3.46255 1
gene 2 20 56 0.778222 0 398 0.778222 1
gene 1 20 57 -0.399422 0 399 -0.399422 1
gene 1 20 58 -3.35353 0 400 -3.35353 1
gene 2 21 39 3.51829 0 401 3.51829 1
gene 3 21 40 -2.57813 0 402 -2.57813 1
gene 2 21 41 -0.631275 0 403 -0.631275 1
gene 3 21 42 5.53911 0 404 5.53911 1
gene 3 21 43 0.139622 0 405 0.139622 1
gene 1 21 44 -5.63601 0 406 -5.63601 1
gene 1 21 45 -8 0 407 -8 1
gene 1 21 46 0.12566 0 408 0.12566 1
gene 2 21 47 -1.41064 0 409 -1.41064 1
gene 1 21 48 -4.97558 0 410 -4.97558 1
gene 2 21 49 -6.27807 0 411 -6.27807 1
gene 1 21 50 -3.27914 0 412 -3.27914 1
gene 3 21 51 -0.0539415 0 413 -0.0539415 1
gene 1 21 52 1.21929 0 414 1.21929 1
gene 3 21 53 0.0566881 0 415 0.0566881 1
gene 2 21 54 -2.53525 0 416 -2.53525 1
gene 3 21 55 6.18023 0 417 6.18023 1
gene 2 21 56 1.8603 0 418 1.8603 1
gene 3 21 57 -1.44402 0 419 -1.44402 1
gene 2 21 58 -0.976218 0 420 -0.976218 1
gene 1 22 39 5.54594 0 421 5.54594 1
gene 1 22 40 -1.09668 0 422 -1.09668 1
gene 3 22 41 3.04891 0 423 3.04891 1
gene 3 22 42 1.06262 0 424 1.06262 1
gene 1 22 43 8 0 425 8 1
gene 1 22 44 -5.52915 0 426 -5.52915 0
gene 1 22 45 4.84199 0 427 4.84199 1
gene 3 22 46 -0.994751 0 428 -0.994751 1
gene 2 22 47 -0.118641 0 429 -0.118641 1
gene 1 22 48 -4.00732 0 430 -4.00732 1
gene 1 22 49 1.26186 0 431 1.26186 1
gene 3 22 50 -2.61941 0 432 -2.61941 1
gene 1 22 51 1.83987 0 433 1.83987 1
gene 1 22 52 6.94138 0 434 6.94138 1
gene 3 22 53 -3.86254 0 435 -3.86254 1
gene 3 22 54 -8 0 436 -8 1
gene 1 22 55 -3.63758 0 437 -3.63758 1
gene 2 22 56 5.2496 0 438 5.2496 1
gene 1 22 57 -0.123829 0 439 -0.123829 1
gene 3 22 58 1.7031 0 440 1.7031 1
gene 1 23 39 -2.18915 0 441 -2.18915 1
gene 2 23 40 1.11019 0 442 1.11019 1
gene 3 23 41 -2.16697 0 443 -2.16697 1
gene 2 23 42 0.694525 0 444 0.694525 1
gene 1 23 43 -0.802026 0 445 -0.802026 1
gene 3 23 44 -0.924024 0 446 -0.924024 1
gene 3 23 45 0.123859 0 447 0.123859 1
gene 3 23 46 -1.43605 0 448 -1.43605 1
gene 3 23 47 8 0 449 8 1
gene 3 23 48 0.0375378 0 450 0.0375378 1
gene 1 23 49 3.83488 0 451 3.83488 1
gene 3 23 50 -0.653188 0 452 -0.653188 1
gene 3 23 51 -8 0 453 -8 1
gene 2 23 52 0.816675 0 454 0.816675 1
gene 1 23 53 1.14391 0 455 1.14391 1
gene 3 23 54 0.379154 0 456 0.379154 1
gene 3 23 55 3.90614 0 457 3.90614 1
gene 2 23 56 2.99005 0 458 2.99005 1
gene 2 23 57 1.71957 0 459 1.71957 1
gene 3 23 58 -4.10718 0 460 -4.10718 1
gene 2 24 39 0.778146 0 461 0.778146 1
gene 1 24 40 0.125927 0 462 0.125927 1
gene 1 24 41 -1.97501 0 463 -1.97501 1
gene 3 24 42 -2.28534 0 464 -2.28534 1
gene 3 24 43 -3.28639 0 465 -3.28639 1
gene 1 24 44 1.35697 0 466 1.35697 1
gene 2 24 45 2.28156 0 467 2.28156 1
gene 3 24 46 -2.65015 0 468 -2.65015 1
gene 1 24 47 7.19729 0 469 7.19729 1
gene 2 24 48 0.30221 0 470 0.30221 1
gene 3 24 49 0.576724 0 471 0.576724 1
gene 1 24 50 -3.64142 0 472 -3.64142 1
gene 2 24 51 -0.107501 0 473 -0.107501 1
gene 1 24 52 6.10023 0 474 6.10023 1
gene 1 24 53 -0.723785 0 475 -0.723785 1
gene 2 24 54 5.48749 0 476 5.48749 1
gene 3 24 55 0.58504 0 477 0.58504 1
gene 3 24 56 0.152364 0 478 0.152364 1
gene 1 24 57 -3.32278 0 479 -3.32278 1
gene 2 24 58 5.25612 0 480 5.25612 1
gene 1 25 39 7.0041 0 481 7.0041 1
gene 1 25 40 1.84305 0 482 1.84305 1
gene 2 25 41 -4.22773 0 483 -4.22773 1
gene 1 25 42 4.03382 0 484 4.03382 1
gene 1 25 43 -0.247963 0 485 -0.247963 1
gene 1 25 44 0.317774 0 486 0.317774 1
gene 3 25 45 -1.75726 0 487 -1.75726 1
gene 2 25 46 -1.9071 0 488 -1.9071 1
gene 3 25 47 2.45727 0 489 2.45727 1
gene 2 25 48 -7.00278 0 490 -7.00278 1
gene 2 25 49 -6.60939 0 491 -6.60939 1
gene 2 25 50 6.86586 0 492 6.86586 1
gene 2 25 51 -1.72384 0 493 -1.72384 1
gene 2 25 52 1.60955 0 494 1.60955 1
gene 1 25 53 -4.79015 0 495 -4.79015 1
gene 1 25 54 -1.39372 0 496 -1.39372 1
gene 3 25 55 -0.395291 0 497 -0.395291 1
gene 3 25 56 -7.89373 0 498 -7.89373 1
gene 2 25 57 5.71154 0 499 5.71154 1
gene 1 25 58 1.2846 0 500 1.2846 1
gene 3 26 39 -0.804888 0 501 -0.804888 1
gene 3 26 40 4.23296 0 502 4.23296 1
gene 2 26 41 2.79231 0 503 2.79231 1
gene 1 26 42 -2.97662 0 504 -2.97662 1
gene 3 26 43 -0.592708 0 505 -0.592708 1
gene 3 26 44 -2.72622 0 506 -2.72622 1
gene 2 26 45 -8 0 507 -8 1
gene 2 26 46 -1.36597 0 508 -1.36597 1
gene 2 26 47 2.73598 0 509 2.73598 1
gene 2 26 48 2.79984 0 510 2.79984 1
gene 2 26 49 -1.66471 0 511 -1.66471 1
gene 1 26 50 -3.59844 0 512 -3.59844 1
gene 2 26 51 3.4236 0 513 3.4236 1
gene 2 26 52 2.29995 0 514 2.29995 1
gene 1 26 53 4.35663 0 515 4.35663 1
gene 1 26 54 -4.80197 0 516 -4.80197 1
gene 2 26 55 -0.0882939 0 517 -0.0882939 1
gene 3 26 56 2.10692 0 518 2.10692 1
gene 3 26 57 1.2402 0 519 1.2402 1
gene 3 26 58 6.01614 0 520 6.01614 1
gene 3 27 39 0.116352 0 521 0.116352 1
gene 2 27 40 -3.10747 0 522 -3.10747 1
gene 3 27 41 -2.90803 0 523 -2.90803 1
gene 1 27 42 5.04105 0 524 5.04105 1
gene 2 27 43 5.67945 0 525 5.67945 1
gene 3 27 44 3.00096 0 526 3.00096 1
gene 1 27 45 -1.00661 0 527 -1.00661 1
gene 1 27 46 -1.21258 0 528 -1.21258 1
gene 3 27 47 5.75797 0 529 5.75797 1
gene 3 27 48 0.396588 0 530 0.396588 1
gene 3 27 49 2.73177 0 531 2.73177 1
gene 3 27 50 8 0 532 8 1
gene 2 27 51 1.64788 0 533 1.64788 1
gene 1 27 52 2.09227 0 534 2.09227 1
gene 3 27 53 -0.867336 0 535 -0.867336 1
gene 3 27 54 8 0 536 8 1
gene 1 27 55 -0.117344 0 537 -0.117344 1
gene 1 27 56 1.07456 0 538 1.07456 1
gene 3 27 57 -5.33681 0 539 -5.33681 1
gene 2 27 58 3.50561 0 540 3.50561 1
gene 1 28 39 3.93132 0 541 3.93132 1
gene 2 28 40 5.70734 0 542 5.70734 1
gene 3 28 41 2.66427 0 543 2.66427 1
gene 3 28 42 4.43243 0 544 4.43243 1
gene 2 28 43 5.86787 0 545 5.86787 1
gene 1 28 44 -3.1286 0 546 -3.1286 1
gene 2 28 45 4.49774 0 547 4.49774 1
gene 1 28 46 -0.837886 0 548 -0.837886 1
gene 3 28 47 5.00679 0 549 5.00679 1
gene 1 28 48 2.18627 0 550 2.18627 1
gene 3 28 49 1.59902 0 551 1.59902 1
gene 2 28 50 2.54921 0 552 2.54921 1
gene 2 28 51 -0.261544 0 553 -0.261544 1
gene 2 28 52 3.9378 0 554 3.9378 1
gene 1 28 53 3.27731 0 555 3.27731 1
gene 2 28 54 0.505455 0 556 0.505455 1
gene 2 28 55 0.663854 0 557 0.663854 1
gene 3 28 56 7.47471 0 558 7.47471 1
gene 3 28 57 0.0614185 0 559 0.0614185 1
gene 1 28 58 4.7541 0 560 4.7541 1
gene 1 29 39 -4.8648 0 561 -4.8648 1
gene 3 29 40 7.62317 0 562 7.62317 1
gene 3 29 41 0.0596637 0 563 0.0596637 1
gene 3 29 42 -0.0891903 0 564 -0.0891903 1
gene 3 29 43 -0.639515 0 565 -0.639515 1
gene 3 29 44 -0.423292 0 566 -0.423292 1
gene 3 29 45 1.22124 0 567 1.22124 1
gene 2 29 46 -1.90924 0 568 -1.90924 1
gene 3 29 47 2.67518 0 569 2.67518 1
gene 1 29 48 5.03681 0 570 5.03681 1
gene 2 29 49 0.760529 0 571 0.760529 1
gene 1 29 50 3.01172 0 572 3.01172 1
gene 2 29 51 4.45998 0 573 4.45998 1
gene 3 29 52 6.22611 0 574 6.22611 1
gene 2 29 53 -5.70154 0 575 -5.70154 1
gene 3 29 54 2.43065 0 576 2.43065 1
gene 1 29 55 -6.23348 0 577 -6.23348 1
gene 3 29 56 1.40873 0 578 1.40873 1
gene 3 29 57 6.10382 0 579 6.10382 1
gene 2 29 58 1.76641 0 580 1.76641 0
gene 2 30 39 1.71171 0 581 1.71171 1
gene 3 30 40 -8 0 582 -8 1
gene 1 30 41 -0.518128 0 583 -0.518128 1
gene 2 30 42 1.42461 0 584 1.42461 1
gene 3 30 43 -2.39476 0 585 -2.39476 1
gene 3 30 44 -2.14965 0 586 -2.14965 1
gene 3 30 45 -1.05808 0 587 -1.05808 1
gene 2 30 46 1.96394 0 588 1.96394 1
gene 1 30 47 3.17232 0 589 3.17232 1
gene 1 30 48 8 0 590 8 1
gene 2 30 49 -1.58231 0 591 -1.58231 1
gene 1 30 50 -1.43633 0 592 -1.43633 1
gene 1 30 51 0.920312 0 593 0.920312 1
gene 3 30 52 -0.619526 0 594 -0.619526 1
gene 2 30 53 -2.50008 0 595 -2.50008 1
gene 2 30 54 -7.28282 0 596 -7.28282 1
gene 2 30 55 -0.448393 0 597 -0.448393 1
gene 1 30 56 -0.502106 0 598 -0.502106 1
gene 1 30 57 1.0538 0 599 1.0538 1
gene 1 30 58 -0.260552 0 600 -0.260552 1
gene 1 31 39 -3.57459 0 601 -3.57459 1
gene 3 31 40 2.33116 0 602 2.33116 1
gene 3 31 41 -1.89096 0 603 -1.89096 1
gene 1 31 42 4.91386 0 604 4.91386 1
gene 1 31 43 0.83224 0 605 0.83224 1
gene 1 31 44 -0.097354 0 606 -0.097354 1
gene 2 31 45 0.815226 0 607 0.815226 1
gene 3 31 46 -0.16007 0 608 -0.16007 1
gene 1 31 47 -7.44807 0 609 -7.44807 1
gene 1 31 48 -2.36908 0 610 -2.36908 1
gene 1 31 49 2.78741 0 611 2.78741 1
gene 2 31 50 -0.858028 0 612 -0.858028 1
gene 2 31 51 -2.28561 0 613 -2.28561 1
gene 3 31 52 2.71241 0 614 2.71241 1
gene 3 31 53 -2.5103 0 615 -2.5103 1
gene 2 31 54 4.72007 0 616 4.72007 1
gene 2 31 55 3.82 0 617 3.82 1
gene 1 31 56 -6.76634 0 618 -6.76634 1
gene 1 31 57 -2.11196 0 619 -2.11196 1
gene 3 31 58 1.41346 0 620 1.41346 1
gene 2 32 39 0.0644704 0 621 0.0644704 1
gene 2 32 40 -6.45558 0 622 -6.45558 1
gene 2 32 41 -5.78196 0 623 -5.78196 1
gene 2 32 42 -2.09555 0 624 -2.09555 1
gene 1 32 43 0.944472 0 625 0.944472 1
gene 2 32 44 -0.782952 0 626 -0.782952 1
gene 1 32 45 -1.89451 0 627 -1.89451 1
gene 1 32 46 -1.53729 0 628 -1.53729 1
gene 1 32 47 -4.34065 0 629 -4.34065 1
gene 2 32 48 -1.85644 0 630 -1.85644 1
gene 2 32 49 -1.49998 0 631 -1.49998 1
gene 1 32 50 0.256813 0 632 0.256813 1
gene 1 32 51 2.11669 0 633 2.11669 1
gene 1 32 52 -2.07953 0 634 -2.07953 1
gene 2 32 53 -0.0843837 0 635 -0.0843837 1
gene 2 32 54 -2.71027 0 636 -2.71027 1
gene 1 32 55 -0.624027 0 637 -0.624027 1
gene 1 32 56 -2.26989 0 638 -2.26989 1
gene 1 32 57 -2.92962 0 639 -2.92962 1
gene 1 32 58 -0.0650807 0 640 -0.0650807 1
gene 3 33 39 -3.69709 0 641 -3.69709 1
gene 3 33 40 -0.628147 0 642 -0.628147 1
gene 2 33 41 -0.0372326 0 643 -0.0372326 1
gene 3 33 42 -0.376293 0 644 -0.376293 1
gene 2 33 43 -0.811239 0 645 -0.811239 1
gene 2 33 44 -2.1144 0 646 -2.1144 1
gene 3 33 45 -1.12491 0 647 -1.12491 1
gene 1 33 46 1.80868 0 648 1.80868 1
gene 3 33 47 -2.22663 0 649 -2.22663 1
gene 1 33 48 1.15314 0 650 1.15314 1
gene 2 33 49 1.57048 0 651 1.57048 1
gene 3 33 50 -1.17626 0 652 -1.17626 1
gene 3 33 51 -0.122684 0 653 -0.122684 1
gene 1 33 52 2.584 0 654 2.584 1
gene 2 33 53 4.30242 0 655 4.30242 1
gene 3 33 54 2.14858 0 656 2.14858 1
gene 1 33 55 1.33122 0 657 1.33122 1
gene 1 33 56 -1.52554 0 658 -1.52554 1
gene 1 33 57 0.884655 0 659 0.884655 1
gene 3 33 58 -2.66617 0 660 -2.66617 1
gene 3 34 39 -2.37754 0 661 -2.37754 1
gene 1 34 40 -0.51294 0 662 -0.51294 1
gene 3 34 41 0.33105 0 663 0.33105 1
gene 2 34 42 -0.478225 0 664 -0.478225 1
gene 2 34 43 8 0 665 8 1
gene 1 34 44 -2.8029 0 666 -2.8029 1
gene 1 34 45 6.4246 0 667 6.4246 1
gene 2 34 46 -1.93587 0 668 -1.93587 1
gene 2 34 47 1.70652 0 669 1.70652 1
gene 3 34 48 0.820109 0 670 0.820109 1
gene 3 34 49 2.51709 0 671 2.51709 1
gene 3 34 50 -1.12667 0 672 -1.12667 1
gene 1 34 51 2.02956 0 673 2.02956 1
gene 1 34 52 -2.17849 0 674 -2.17849 1
gene 1 34 53 3.9346 0 675 3.9346 1
gene 3 34 54 -1.56629 0 676 -1.56629 1
gene 2 34 55 3.6185 0 677 3.6185 1
gene 1 34 56 -1.67928 0 678 -1.67928 1
gene 3 34 57 4.17955 0 679 4.17955 1
gene 2 34 58 5.83773 0 680 5.83773 1
gene 3 35 39 -0.421842 0 681 -0.421842 1
gene 3 35 40 -2.04886 0 682 -2.04886 1
gene 1 35 41 5.43504 0 683 5.43504 1
gene 3 35 42 -0.771355 0 684 -0.771355 1
gene 2 35 43 0.197531 0 685 0.197531 1
gene 2 35 44 1.5067 0 686 1.5067 1
gene 3 35 45 1.96944 0 687 1.96944 1
gene 1 35 46 0.400479 0 688 0.400479 1
gene 3 35 47 1.26408 0 689 1.26408 1
gene 2 35 48 -0.928602 0 690 -0.928602 1
gene 3 35 49 -1.1726 0 691 -1.1726 1
gene 2 35 50 0.828806 0 692 0.828806 1
gene 3 35 51 1.4378 0 693 1.4378 1
gene 2 35 52 -0.0772881 0 694 -0.0772881 1
gene 3 35 53 1.59711 0 695 1.59711 1
gene 2 35 54 -1.78358 0 696 -1.78358 1
gene 1 35 55 -1.04289 0 697 -1.04289 1
gene 3 35 56 3.93925 0 698 3.93925 1
gene 3 35 57 -4.29891 0 699 -4.29891 1
gene 2 35 58 0.673544 0 700 0.673544 1
gene 2 36 39 1.5643 0 701 1.5643 1
gene 3 36 40 5.7667 0 702 5.7667 1
gene 2 36 41 0.675451 0 703 0.675451 1
gene 1 36 42 0.920667 0 704 0.920667 1
gene 3 36 43 -0.780435 0 705 -0.780435 1
gene 2 36 44 3.63201 0 706 3.63201 1
gene 1 36 45 -3.66169 0 707 -3.66169 1
gene 1 36 46 -1.94472 0 708 -1.94472 1
gene 3 36 47 1.55747 0 709 1.55747 1
gene 2 36 48 2.12912 0 710 2.12912 1
gene 2 36 49 2.84577 0 711 2.84577 1
gene 3 36 50 4.6823 0 712 4.6823 1
gene 3 36 51 -1.55568 0 713 -1.55568 1
gene 1 36 52 3.48018 0 714 3.48018 1
gene 2 36 53 1.78663 0 715 1.78663 1
gene 1 36 54 -0.499359 0 716 -0.499359 1
gene 1 36 55 -2.03726 0 717 -2.03726 1
gene 1 36 56 -0.992996 0 718 -0.992996 1
gene 3 36 57 -3.31927 0 719 -3.31927 1
gene 2 36 58 -2.14736 0 720 -2.14736 1
gene 3 37 39 0.536821 0 721 0.536821 1
gene 3 37 40 0.106128 0 722 0.106128 1
gene 1 37 41 2.70417 0 723 2.70417 1
gene 2 37 42 2.61437 0 724 2.61437 1
gene 3 37 43 0.773339 0 725 0.773339 1
gene 1 37 44 0.0869778 0 726 0.0869778 1
gene 1 37 45 -5.78562 0 727 -5.78562 1
gene 1 37 46 -1.2125 0 728 -1.2125 1
gene 3 37 47 -1.07501 0 729 -1.07501 1
gene 1 37 48 -7.53441 0 730 -7.53441 1
gene 2 37 49 0.0041963 0 731 0.0041963 1
gene 1 37 50 -7.00701 0 732 -7.00701 1
gene 2 37 51 0.792795 0 733 0.792795 1
gene 2 37 52 -0.474258 0 734 -0.474258 1
gene 2 37 53 -1.1964 0 735 -1.1964 1
gene 1 37 54 1.6496 0 736 1.6496 1
gene 3 37 55 -0.6901 0 737 -0.6901 1
gene 1 37 56 -2.03299 0 738 -2.03299 1
gene 3 37 57 -0.546968 0 739 -0.546968 1
gene 2 37 58 5.25399 0 740 5.25399 1
gene 1 38 39 0.590457 0 741 0.590457 1
gene 1 38 40 0.044557 0 742 0.044557 1
gene 3 38 41 -0.685827 0 743 -0.685827 1
gene 3 38 42 0.901746 0 744 0.901746 1
gene 1 38 43 -8 0 745 -8 1
gene 3 38 44 -1.39958 0 746 -1.39958 1
gene 3 38 45 2.71935 0 747 2.71935 1
gene 3 38 46 -0.366527 0 748 -0.366527 1
gene 2 38 47 -0.66538 0 749 -0.66538 1
gene 2 38 48 1.88818 0 750 1.88818 1
gene 2 38 49 2.39608 0 751 2.39608 1
gene 3 38 50 -4.93507 0 752 -4.93507 1
gene 2 38 51 -1.714 0 753 -1.714 1
gene 3 38 52 -3.90194 0 754 -3.90194 1
gene 3 38 53 -2.88636 0 755 -2.88636 1
gene 2 38 54 0.475784 0 756 0.475784 1
gene 2 38 55 -1.03328 0 757 -1.03328 1
gene 1 38 56 0.941038 0 758 0.941038 1
gene 3 38 57 1.43674 0 759 1.43674 1
gene 2 38 58 -3.45454 0 760 -3.45454 1
gene 1 31 60 1.7581 0 767 1.7581 1
gene 1 60 47 0.803209 0 768 0.803209 1
gene 1 50 42 1.10576 0 770 1.10576 1
gene 2 42 43 -0.941725 0 779 -0.941725 1
gene 1 40 48 2.0378 0 784 2.0378 1
gene 1 50 56 0.807291 0 814 0.807291 1
gene 3 39 50 -0.595187 0 830 -0.595187 1
gene 3 49 40 2.80442 0 893 2.80442 1
gene 1 22 102 2.51563 0 896 2.51563 1
gene 1 102 44 0.774407 0 897 0.774407 1
gene 2 29 106 0.301202 0 905 0.301202 1
gene 2 106 58 3.35246 0 906 3.35246 1
gene 2 7 110 -1.27996 0 916 -1.27996 1
gene 2 110 51 -6.8173 0 917 -6.8173 1
genomeend 0
