/* 1 1 */

/* Organism #0 Fitness: 1.129615 Time: 0 */
genomestart 0
trait 1 0.100000 0.000000 0.000000 0.000000 0.000000 0.000000 0.000000 0.000000 
trait 2 0.200000 0.000000 0.000000 0.000000 0.000000 0.000000 0.000000 0.000000 
trait 3 0.261669 0.000000 0.292062 0.000000 0.000000 0.000000 0.000000 0.000000 
node 1 3 1 3
node 2 1 1 1
node 3 3 1 1
node 4 2 1 1
node 5 3 1 1
node 6 3 1 1
node 7 2 1 1
node 8 3 1 1
node 9 1 1 1
node 10 2 1 1
node 11 3 1 1
node 12 2 1 1
node 13 2 0 2
node 14 3 0 2
node 15 2 0 2
node 20 1 0 0
gene 1 1 13 -1.63762 0 1 -1.63762 1
gene 3 1 14 -1.1937 0 2 -1.1937 1
gene 1 1 15 4.19118 0 3 4.19118 1
gene 1 2 13 -1.99635 0 4 -1.99635 1
gene 2 2 14 1.28822 0 5 1.28822 1
gene 1 2 15 0.0397351 0 6 0.0397351 1
gene 1 3 13 -1.50836 0 7 -1.50836 1
gene 2 3 14 0.0139622 0 8 0.0139622 1
gene 3 3 15 -2.91771 0 9 -2.91771 1
gene 3 4 13 1.84677 0 10 1.84677 1
gene 1 4 14 -3.29109 0 11 -3.29109 1
gene 3 4 15 2.03658 0 12 2.03658 1
gene 2 5 13 -3.54355 0 13 -3.54355 1
gene 2 5 14 -0.0916471 0 14 -0.0916471 1
gene 3 5 15 1.56014 0 15 1.56014 0
gene 3 6 13 3.25364 0 16 3.25364 1
gene 3 6 14 3.38691 0 17 3.38691 1
gene 3 6 15 -2.8222 0 18 -2.8222 1
gene 1 7 13 -1.14841 0 19 -1.14841 1
gene 2 7 14 -1.64029 0 20 -1.64029 1
gene 3 7 15 -2.63642 0 21 -2.63642 1
gene 2 8 13 0.429014 0 22 0.429014 1
gene 1 8 14 -3.95047 0 23 -3.95047 1
gene 3 8 15 1.03938 0 24 1.03938 1
gene 3 9 13 -0.835154 0 25 -0.835154 1
gene 3 9 14 1.99188 0 26 1.99188 1
gene 3 9 15 -2.68274 0 27 -2.68274 1
gene 1 10 13 0.687078 0 28 0.687078 1
gene 3 10 14 4.02658 0 29 4.02658 1
gene 3 10 15 0.69921 0 30 0.69921 1
gene 3 11 13 -0.1742 0 31 -0.1742 1
gene 2 11 14 -1.66214 0 32 -1.66214 1
gene 3 11 15 -0.6639 0 33 -0.6639 1
gene 3 12 13 1.69073 0 34 1.69073 1
gene 2 12 14 1.60871 0 35 1.60871 1
gene 3 12 15 2.40127 0 36 2.40127 1
gene 3 5 20 0.165319 0 49 0.165319 1
gene 3 20 15 1.19926 0 50 1.19926 1
genomeend 0
