/* 1 1 */

/* Organism #0 Fitness: 1.079251 Time: 0 */
genomestart 0
trait 1 0.075000 0.414655 0.122570 0.000000 0.016350 0.000000 0.000000 0.075198 
trait 2 0.779363 0.700461 0.000000 0.632954 1.000000 0.316935 0.000000 1.000000 
trait 3 0.300000 0.000000 0.000000 0.000000 0.000000 0.315928 0.000000 0.000000 
node 1 1 1 3
node 2 1 1 1
node 3 1 1 1
node 4 2 1 1
node 5 2 1 1
node 6 3 1 1
node 7 1 1 1
node 8 2 1 1
node 9 2 1 1
node 10 1 1 1
node 11 1 1 1
node 12 2 1 1
node 13 3 1 1
node 14 3 1 1
node 15 1 1 1
node 16 2 1 1
node 17 2 1 1
node 18 2 1 1
node 19 3 1 1
node 20 3 1 1
node 21 3 1 1
node 22 1 1 1
node 23 3 1 1
node 24 2 1 1
node 25 1 1 1
node 26 2 0 2
node 27 1 0 2
node 28 2 0 2
node 29 1 0 2
node 30 3 0 2
node 31 2 0 2
node 32 2 0 2
node 33 3 0 2
node 34 2 0 2
node 35 3 0 2
node 36 3 0 2
node 37 2 0 2
node 38 3 0 2
node 39 3 0 2
node 40 3 0 2
node 41 3 0 2
node 42 1 0 2
node 43 2 0 2
node 51 3 0 0
node 53 1 0 0
node 67 1 0 0
node 99 1 0 0
node 112 1 0 0
node 140 1 0 0
node 154 1 0 0
node 169 1 0 0
node 239 1 0 0
node 245 1 0 0
node 264 1 0 0
gene 1 1 26 3.9037 0 1 3.9037 1
gene 3 1 27 5.13516 0 2 5.13516 1
gene 2 1 28 -2.06835 0 3 -2.06835 1
gene 3 1 29 -1.5508 0 4 -1.5508 1
gene 2 1 30 -6.18236 0 5 -6.18236 1
gene 1 1 31 -0.589694 0 6 -0.589694 1
gene 1 1 32 -2.07862 0 7 -2.07862 1
gene 1 1 33 -3.15355 0 8 -3.15355 1
gene 1 1 34 -0.0659963 0 9 -0.0659963 1
gene 2 1 35 2.99982 0 10 2.99982 1
gene 2 1 36 -8 0 11 -8 1
gene 2 1 37 -2.34863 0 12 -2.34863 1
gene 2 1 38 3.67586 0 13 3.67586 1
gene 1 1 39 -2.99974 0 14 -2.99974 1
gene 1 1 40 6.57369 0 15 6.57369 1
gene 2 1 41 -1.5521 0 16 -1.5521 1
gene 3 1 42 -2.9986 0 17 -2.9986 1
gene 2 2 26 -2.02164 0 18 -2.02164 1
gene 3 2 27 2.846 0 19 2.846 1
gene 2 2 28 -0.0654622 0 20 -0.0654622 1
gene 3 2 29 2.95183 0 21 2.95183 1
gene 3 2 30 -3.52412 0 22 -3.52412 1
gene 2 2 31 0.421766 0 23 0.421766 1
gene 3 2 32 -4.50591 0 24 -4.50591 1
gene 1 2 33 -1.24042 0 25 -1.24042 1
gene 3 2 34 0.815378 0 26 0.815378 1
gene 3 2 35 -1.07166 0 27 -1.07166 1
gene 1 2 36 -0.422376 0 28 -0.422376 1
gene 1 2 37 -4.50705 0 29 -4.50705 1
gene 2 2 38 1.8453 0 30 1.8453 1
gene 1 2 39 -3.26838 0 31 -3.26838 1
gene 3 2 40 -0.0775933 0 32 -0.0775933 1
gene 3 2 41 -1.80166 0 33 -1.80166 1
gene 3 2 42 0.144257 0 34 0.144257 1
gene 3 3 26 0.130085 0 35 0.130085 1
gene 2 3 27 1.90748 0 36 1.90748 1
gene 1 3 28 4.29327 0 37 4.29327 1
gene 3 3 29 -2.91372 0 38 -2.91372 1
gene 3 3 30 7.01372 0 39 7.01372 1
gene 3 3 31 -1.35731 0 40 -1.35731 1
gene 1 3 32 -3.49452 0 41 -3.49452 1
gene 3 3 33 -0.520569 0 42 -0.520569 1
gene 2 3 34 1.65712 0 43 1.65712 1
gene 2 3 35 1.44963 0 44 1.44963 1
gene 2 3 36 3.34429 0 45 3.34429 1
gene 1 3 37 -4.66224 0 46 -4.66224 1
gene 1 3 38 1.86111 0 47 1.86111 1
gene 3 3 39 -0.611667 0 48 -0.611667 1
gene 3 3 40 2.23716 0 49 2.23716 1
gene 2 3 41 -0.366527 0 50 -0.366527 1
gene 1 3 42 -4.01158 0 51 -4.01158 1
gene 3 4 26 1.08449 0 52 1.08449 1
gene 2 4 27 2.36541 0 53 2.36541 1
gene 3 4 28 4.19289 0 54 4.19289 1
gene 2 4 29 0.721381 0 55 0.721381 1
gene 1 4 30 -0.821711 0 56 -0.821711 1
gene 1 4 31 1.40942 0 57 1.40942 1
gene 3 4 32 -0.500732 0 58 -0.500732 1
gene 1 4 33 -2.31048 0 59 -2.31048 1
gene 1 4 34 0.711081 0 60 0.711081 1
gene 2 4 35 0.0555437 0 61 0.0555437 1
gene 3 4 36 2.46445 0 62 2.46445 1
gene 1 4 37 3.49063 0 63 3.49063 1
gene 2 4 38 3.4003 0 64 3.4003 1
gene 1 4 39 3.02561 0 65 3.02561 1
gene 3 4 40 -0.795389 0 66 -0.795389 1
gene 2 4 41 -2.29278 0 67 -2.29278 1
gene 2 4 42 -5.30156 0 68 -5.30156 1
gene 2 5 26 -3.30327 0 69 -3.30327 1
gene 1 5 27 0.728629 0 70 0.728629 1
gene 2 5 28 -0.266503 0 71 -0.266503 1
gene 1 5 29 -1.81196 0 72 -1.81196 1
gene 2 5 30 1.8598 0 73 1.8598 1
gene 1 5 31 1.07356 0 74 1.07356 1
gene 3 5 32 2.90399 0 75 2.90399 1
gene 2 5 33 -1.38607 0 76 -1.38607 1
gene 2 5 34 6.80345 0 77 6.80345 1
gene 2 5 35 2.41012 0 78 2.41012 1
gene 3 5 36 0.393155 0 79 0.393155 1
gene 1 5 37 2.42027 0 80 2.42027 1
gene 3 5 38 -0.328303 0 81 -0.328303 1
gene 1 5 39 3.81771 0 82 3.81771 1
gene 1 5 40 7.15784 0 83 7.15784 1
gene 3 5 41 0.694067 0 84 0.694067 1
gene 2 5 42 -3.69762 0 85 -3.69762 1
gene 2 6 26 2.18596 0 86 2.18596 1
gene 1 6 27 1.72765 0 87 1.72765 1
gene 3 6 28 -1.81478 0 88 -1.81478 1
gene 2 6 29 1.80403 0 89 1.80403 1
gene 3 6 30 4.37307 0 90 4.37307 1
gene 2 6 31 0.96736 0 91 0.96736 1
gene 2 6 32 1.74497 0 92 1.74497 1
gene 1 6 33 -6.648 0 93 -6.648 1
gene 3 6 34 -2.89453 0 94 -2.89453 1
gene 3 6 35 -1.23951 0 95 -1.23951 1
gene 1 6 36 -2.81236 0 96 -2.81236 1
gene 1 6 37 -0.648289 0 97 -0.648289 1
gene 1 6 38 0.85696 0 98 0.85696 1
gene 3 6 39 -2.62391 0 99 -2.62391 1
gene 1 6 40 2.10532 0 100 2.10532 1
gene 1 6 41 -8 0 101 -8 1
gene 2 6 42 0.0195318 0 102 0.0195318 1
gene 2 7 26 -1.14452 0 103 -1.14452 1
gene 3 7 27 2.15506 0 104 2.15506 1
gene 1 7 28 5.05222 0 105 5.05222 1
gene 2 7 29 -2.12123 0 106 -2.12123 1
gene 2 7 30 4.13434 0 107 4.13434 1
gene 2 7 31 1.8405 0 108 1.8405 1
gene 1 7 32 -8 0 109 -8 1
gene 3 7 33 0.297937 0 110 0.297937 1
gene 1 7 34 -2.31944 0 111 -2.31944 1
gene 3 7 35 0.0627155 0 112 0.0627155 1
gene 1 7 36 -2.15804 0 113 -2.15804 1
gene 3 7 37 -1.41804 0 114 -1.41804 0
gene 2 7 38 2.30827 0 115 2.30827 1
gene 1 7 39 8 0 116 8 1
gene 2 7 40 -1.74406 0 117 -1.74406 1
gene 3 7 41 -8 0 118 -8 1
gene 1 7 42 3.89037 0 119 3.89037 1
gene 3 8 26 4.78393 0 120 4.78393 1
gene 1 8 27 -1.31932 0 121 -1.31932 1
gene 1 8 28 8 0 122 8 1
gene 3 8 29 2.06709 0 123 2.06709 1
gene 1 8 30 -1.16153 0 124 -1.16153 1
gene 3 8 31 -3.73157 0 125 -3.73157 1
gene 3 8 32 -8 0 126 -8 1
gene 1 8 33 -1.05991 0 127 -1.05991 1
gene 2 8 34 -4.81037 0 128 -4.81037 1
gene 1 8 35 0.644475 0 129 0.644475 1
gene 3 8 36 0.0207526 0 130 0.0207526 1
gene 2 8 37 -1.19404 0 131 -1.19404 1
gene 1 8 38 -0.408605 0 132 -0.408605 1
gene 1 8 39 -0.398038 0 133 -0.398038 1
gene 2 8 40 -0.897626 0 134 -0.897626 1
gene 2 8 41 0.998222 0 135 0.998222 1
gene 1 8 42 -8 0 136 -8 1
gene 2 9 26 -0.568102 0 137 -0.568102 1
gene 1 9 27 1.75527 0 138 1.75527 1
gene 2 9 28 -1.53821 0 139 -1.53821 1
gene 2 9 29 -1.6644 0 140 -1.6644 1
gene 1 9 30 4.0352 0 141 4.0352 1
gene 1 9 31 0.874355 0 142 0.874355 1
gene 3 9 32 -0.785165 0 143 -0.785165 1
gene 3 9 33 -0.525338 0 144 -0.525338 1
gene 3 9 34 8 0 145 8 1
gene 3 9 35 -1.49533 0 146 -1.49533 1
gene 1 9 36 -2.48932 0 147 -2.48932 1
gene 1 9 37 -0.177923 0 148 -0.177923 1
gene 1 9 38 -0.82522 0 149 -0.82522 1
gene 1 9 39 1.75153 0 150 1.75153 1
gene 1 9 40 -0.962058 0 151 -0.962058 1
gene 1 9 41 5.46648 0 152 5.46648 1
gene 3 9 42 3.55132 0 153 3.55132 1
gene 3 10 26 0.628071 0 154 0.628071 1
gene 2 10 27 -0.774789 0 155 -0.774789 1
gene 1 10 28 -0.534379 0 156 -0.534379 1
gene 1 10 29 -3.04363 0 157 -3.04363 1
gene 3 10 30 -0.178743 0 158 -0.178743 1
gene 1 10 31 6.63831 0 159 6.63831 1
gene 3 10 32 1.68523 0 160 1.68523 1
gene 1 10 33 6.5432 0 161 6.5432 1
gene 2 10 34 0.367748 0 162 0.367748 1
gene 3 10 35 -1.13979 0 163 -1.13979 1
gene 2 10 36 2.14492 0 164 2.14492 1
gene 3 10 37 0.736717 0 165 0.736717 1
gene 3 10 38 2.12668 0 166 2.12668 1
gene 3 10 39 4.4818 0 167 4.4818 0
gene 3 10 40 0.11145 0 168 0.11145 1
gene 1 10 41 -4.56578 0 169 -4.56578 1
gene 2 10 42 0.78898 0 170 0.78898 1
gene 1 11 26 3.78466 0 171 3.78466 1
gene 2 11 27 -2.28835 0 172 -2.28835 1
gene 3 11 28 0.841319 0 173 0.841319 1
gene 2 11 29 -1.12201 0 174 -1.12201 1
gene 2 11 30 0.874813 0 175 0.874813 1
gene 3 11 31 0.338679 0 176 0.338679 1
gene 2 11 32 -0.0604266 0 177 -0.0604266 1
gene 2 11 33 1.2315 0 178 1.2315 1
gene 1 11 34 -1.99622 0 179 -1.99622 1
gene 1 11 35 -2.91242 0 180 -2.91242 1
gene 2 11 36 -1.29254 0 181 -1.29254 1
gene 2 11 37 -1.07786 0 182 -1.07786 1
gene 1 11 38 1.58521 0 183 1.58521 1
gene 2 11 39 1.51212 0 184 1.51212 1
gene 1 11 40 -2.34764 0 185 -2.34764 1
gene 2 11 41 -2.12138 0 186 -2.12138 1
gene 3 11 42 -6.05312 0 187 -6.05312 1
gene 2 12 26 4.58377 0 188 4.58377 1
gene 3 12 27 2.18261 0 189 2.18261 1
gene 2 12 28 -2.27454 0 190 -2.27454 1
gene 2 12 29 0.725883 0 191 0.725883 1
gene 2 12 30 7.37938 0 192 7.37938 1
gene 3 12 31 -1.20533 0 193 -1.20533 1
gene 1 12 32 -0.0733207 0 194 -0.0733207 1
gene 1 12 33 -2.35076 0 195 -2.35076 1
gene 2 12 34 -5.64274 0 196 -5.64274 0
gene 2 12 35 1.48953 0 197 1.48953 1
gene 1 12 36 -0.285577 0 198 -0.285577 1
gene 3 12 37 2.68025 0 199 2.68025 1
gene 1 12 38 0.0212867 0 200 0.0212867 1
gene 2 12 39 -0.715964 0 201 -0.715964 1
gene 1 12 40 0.434812 0 202 0.434812 1
gene 3 12 41 0.780129 0 203 0.780129 1
gene 1 12 42 -4.63374 0 204 -4.63374 1
gene 2 13 26 1.21143 0 205 1.21143 1
gene 2 13 27 1.35334 0 206 1.35334 1
gene 1 13 28 -2.0127 0 207 -2.0127 1
gene 2 13 29 2.09937 0 208 2.09937 1
gene 3 13 30 4.1496 0 209 4.1496 1
gene 1 13 31 0.341273 0 210 0.341273 1
gene 2 13 32 7.98469 0 211 7.98469 1
gene 1 13 33 -2.46767 0 212 -2.46767 1
gene 3 13 34 7.58914 0 213 7.58914 1
gene 2 13 35 7.45608 0 214 7.45608 1
gene 3 13 36 1.76176 0 215 1.76176 1
gene 3 13 37 0.156178 0 216 0.156178 1
gene 2 13 38 -6.10233 0 217 -6.10233 1
gene 1 13 39 -0.68144 0 218 -0.68144 1
gene 3 13 40 5.74949 0 219 5.74949 1
gene 3 13 41 -7.87759 0 220 -7.87759 1
gene 3 13 42 0.529267 0 221 0.529267 1
gene 1 14 26 -1.53851 0 222 -1.53851 1
gene 1 14 27 2.31651 0 223 2.31651 1
gene 3 14 28 -2.60941 0 224 -2.60941 1
gene 2 14 29 -0.554521 0 225 -0.554521 1
gene 1 14 30 -0.631237 0 226 -0.631237 1
gene 3 14 31 1.19085 0 227 1.19085 1
gene 2 14 32 -8 0 228 -8 1
gene 2 14 33 1.59543 0 229 1.59543 1
gene 1 14 34 4.37085 0 230 4.37085 1
gene 3 14 35 2.59438 0 231 2.59438 1
gene 3 14 36 -2.63352 0 232 -2.63352 1
gene 3 14 37 0.185362 0 233 0.185362 1
gene 1 14 38 -4.63053 0 234 -4.63053 1
gene 2 14 39 -2.94351 0 235 -2.94351 1
gene 3 14 40 0.558031 0 236 0.558031 1
gene 1 14 41 4.57564 0 237 4.57564 1
gene 3 14 42 0.764183 0 238 0.764183 1
gene 1 15 26 -3.54648 0 239 -3.54648 1
gene 2 15 27 3.14001 0 240 3.14001 1
gene 1 15 28 -0.315638 0 241 -0.315638 1
gene 2 15 29 -3.92361 0 242 -3.92361 1
gene 1 15 30 -5.99296 0 243 -5.99296 1
gene 2 15 31 -1.98187 0 244 -1.98187 1
gene 1 15 32 3.97977 0 245 3.97977 1
gene 2 15 33 4.31036 0 246 4.31036 1
gene 2 15 34 4.1656 0 247 4.1656 1
gene 2 15 35 -3.84213 0 248 -3.84213 1
gene 2 15 36 0.144124 0 249 0.144124 1
gene 3 15 37 -0.891827 0 250 -0.891827 1
gene 3 15 38 1.63556 0 251 1.63556 1
gene 1 15 39 1.49464 0 252 1.49464 1
gene 3 15 40 -2.00875 0 253 -2.00875 1
gene 2 15 41 -1.24691 0 254 -1.24691 1
gene 3 15 42 -1.73315 0 255 -1.73315 1
gene 3 16 26 0.555589 0 256 0.555589 1
gene 1 16 27 0.501953 0 257 0.501953 1
gene 1 16 28 0.967208 0 258 0.967208 1
gene 3 16 29 -3.74882 0 259 -3.74882 1
gene 3 16 30 -2.51534 0 260 -2.51534 1
gene 3 16 31 5.65668 0 261 5.65668 1
gene 2 16 32 -2.97189 0 262 -2.97189 1
gene 2 16 33 -8 0 263 -8 1
gene 2 16 34 -6.43437 0 264 -6.43437 1
gene 2 16 35 -3.62941 0 265 -3.62941 1
gene 3 16 36 -4.39186 0 266 -4.39186 1
gene 2 16 37 7.15059 0 267 7.15059 1
gene 3 16 38 -1.30041 0 268 -1.30041 1
gene 1 16 39 3.5828 0 269 3.5828 1
gene 2 16 40 -2.85867 0 270 -2.85867 1
gene 3 16 41 8 0 271 8 1
gene 3 16 42 -0.483825 0 272 -0.483825 1
gene 1 17 26 1.05075 0 273 1.05075 1
gene 2 17 27 -3.10686 0 274 -3.10686 1
gene 1 17 28 1.74627 0 275 1.74627 1
gene 2 17 29 2.29881 0 276 2.29881 1
gene 1 17 30 0.389664 0 277 0.389664 1
gene 3 17 31 -0.857799 0 278 -0.857799 1
gene 3 17 32 -1.85003 0 279 -1.85003 1
gene 1 17 33 4.57133 0 280 4.57133 1
gene 1 17 34 -6.77426 0 281 -6.77426 1
gene 2 17 35 6.38802 0 282 6.38802 1
gene 1 17 36 -0.495697 0 283 -0.495697 1
gene 1 17 37 -1.55118 0 284 -1.55118 1
gene 2 17 38 -7.1187 0 285 -7.1187 1
gene 2 17 39 2.46261 0 286 2.46261 1
gene 3 17 40 5.92695 0 287 5.92695 1
gene 1 17 41 1.87601 0 288 1.87601 1
gene 3 17 42 6.41888 0 289 6.41888 1
gene 3 18 26 0.310373 0 290 0.310373 1
gene 1 18 27 8 0 291 8 1
gene 2 18 28 -0.912198 0 292 -0.912198 1
gene 1 18 29 5.14373 0 293 5.14373 1
gene 3 18 30 -1.60031 0 294 -1.60031 1
gene 3 18 31 4.21476 0 295 4.21476 1
gene 2 18 32 -1.09249 0 296 -1.09249 0
gene 2 18 33 -2.1952 0 297 -2.1952 1
gene 1 18 34 0.388119 0 298 0.388119 1
gene 2 18 35 0.994636 0 299 0.994636 1
gene 1 18 36 -7.84944 0 300 -7.84944 1
gene 2 18 37 -4.03932 0 301 -4.03932 1
gene 1 18 38 -1.5437 0 302 -1.5437 1
gene 3 18 39 1.70507 0 303 1.70507 1
gene 2 18 40 -5.67949 0 304 -5.67949 1
gene 2 18 41 1.16993 0 305 1.16993 1
gene 3 18 42 -8 0 306 -8 1
gene 2 19 26 2.00613 0 307 2.00613 1
gene 3 19 27 -0.665685 0 308 -0.665685 1
gene 3 19 28 -2.84013 0 309 -2.84013 1
gene 2 19 29 -6.06055 0 310 -6.06055 1
gene 3 19 30 -0.0114444 0 311 -0.0114444 1
gene 2 19 31 -1.13559 0 312 -1.13559 1
gene 3 19 32 -1.04411 0 313 -1.04411 1
gene 2 19 33 -0.402539 0 314 -0.402539 1
gene 1 19 34 5.9962 0 315 5.9962 1
gene 3 19 35 -1.10103 0 316 -1.10103 1
gene 1 19 36 -0.0168615 0 317 -0.0168615 1
gene 1 19 37 -3.4801 0 318 -3.4801 1
gene 2 19 38 -2.43141 0 319 -2.43141 1
gene 3 19 39 1.29772 0 320 1.29772 1
gene 2 19 40 0.767159 0 321 0.767159 1
gene 1 19 41 -1.08619 0 322 -1.08619 1
gene 1 19 42 -0.785699 0 323 -0.785699 1
gene 2 20 26 2.97937 0 324 2.97937 1
gene 1 20 27 -1.60932 0 325 -1.60932 0
gene 1 20 28 2.36587 0 326 2.36587 1
gene 3 20 29 -7.95117 0 327 -7.95117 1
gene 3 20 30 -5.97194 0 328 -5.97194 1
gene 1 20 31 -3.13841 0 329 -3.13841 1
gene 3 20 32 -0.740532 0 330 -0.740532 1
gene 2 20 33 0.816218 0 331 0.816218 1
gene 3 20 34 -1.17977 0 332 -1.17977 1
gene 3 20 35 -0.807138 0 333 -0.807138 1
gene 2 20 36 1.53699 0 334 1.53699 1
gene 3 20 37 3.51012 0 335 3.51012 1
gene 3 20 38 -1.62656 0 336 -1.62656 1
gene 1 20 39 -3.14573 0 337 -3.14573 1
gene 1 20 40 1.63766 0 338 1.63766 1
gene 3 20 41 -0.757622 0 339 -0.757622 1
gene 2 20 42 1.81227 0 340 1.81227 1
gene 3 21 26 -4.24902 0 341 -4.24902 1
gene 3 21 27 -1.81768 0 342 -1.81768 1
gene 1 21 28 -4.10056 0 343 -4.10056 1
gene 3 21 29 1.33007 0 344 1.33007 1
gene 3 21 30 0.253227 0 345 0.253227 1
gene 1 21 31 1.5109 0 346 1.5109 1
gene 2 21 32 -2.26905 0 347 -2.26905 1
gene 2 21 33 -0.673467 0 348 -0.673467 1
gene 3 21 34 5.91163 0 349 5.91163 1
gene 3 21 35 3.65211 0 350 3.65211 1
gene 2 21 36 -0.897168 0 351 -0.897168 1
gene 1 21 37 0.732711 0 352 0.732711 1
gene 1 21 38 -6.74986 0 353 -6.74986 1
gene 2 21 39 -0.378353 0 354 -0.378353 1
gene 1 21 40 -4.40981 0 355 -4.40981 1
gene 2 21 41 1.13559 0 356 1.13559 1
gene 2 21 42 1.75146 0 357 1.75146 1
gene 3 22 26 -4.71679 0 358 -4.71679 1
gene 1 22 27 -0.902432 0 359 -0.902432 1
gene 1 22 28 -1.95265 0 360 -1.95265 1
gene 1 22 29 3.09149 0 361 3.09149 1
gene 2 22 30 2.19504 0 362 2.19504 1
gene 3 22 31 2.40333 0 363 2.40333 1
gene 1 22 32 -0.612884 0 364 -0.612884 1
gene 1 22 33 1.08646 0 365 1.08646 1
gene 1 22 34 -1.03366 0 366 -1.03366 1
gene 2 22 35 -2.59964 0 367 -2.59964 1
gene 1 22 36 -0.324564 0 368 -0.324564 1
gene 1 22 37 -2.98456 0 369 -2.98456 1
gene 3 22 38 2.76933 0 370 2.76933 1
gene 3 22 39 -2.88156 0 371 -2.88156 1
gene 1 22 40 -0.0742077 0 372 -0.0742077 1
gene 1 22 41 -0.516526 0 373 -0.516526 1
gene 2 22 42 -3.59058 0 374 -3.59058 1
gene 3 23 26 -8 0 375 -8 1
gene 3 23 27 -0.966941 0 376 -0.966941 1
gene 2 23 28 -3.15447 0 377 -3.15447 1
gene 2 23 29 -5.06787 0 378 -5.06787 1
gene 1 23 30 -0.198523 0 379 -0.198523 1
gene 3 23 31 1.52379 0 380 1.52379 1
gene 1 23 32 0.585955 0 381 0.585955 1
gene 2 23 33 0.479751 0 382 0.479751 1
gene 2 23 34 -2.3088 0 383 -2.3088 1
gene 1 23 35 -0.684111 0 384 -0.684111 1
gene 3 23 36 0.445532 0 385 0.445532 1
gene 2 23 37 0.801263 0 386 0.801263 1
gene 3 23 38 1.33702 0 387 1.33702 1
gene 3 23 39 3.75469 0 388 3.75469 1
gene 2 23 40 -3.22901 0 389 -3.22901 1
gene 2 23 41 3.01889 0 390 3.01889 1
gene 2 23 42 3.11914 0 391 3.11914 1
gene 3 24 26 -2.17811 0 392 -2.17811 1
gene 2 24 27 6.86186 0 393 6.86186 1
gene 1 24 28 -1.91244 0 394 -1.91244 1
gene 2 24 29 -6.43628 0 395 -6.43628 1
gene 3 24 30 -4.12198 0 396 -4.12198 1
gene 3 24 31 0.20146 0 397 0.20146 1
gene 2 24 32 3.59363 0 398 3.59363 1
gene 3 24 33 -0.219275 0 399 -0.219275 1
gene 2 24 34 -0.89526 0 400 -0.89526 0
gene 1 24 35 0.778146 0 401 0.778146 1
gene 2 24 36 -4.35747 0 402 -4.35747 1
gene 3 24 37 -2.78024 0 403 -2.78024 1
gene 3 24 38 -0.610828 0 404 -0.610828 1
gene 1 24 39 6.0202 0 405 6.0202 1
gene 1 24 40 -0.527894 0 406 -0.527894 1
gene 3 24 41 -2.13584 0 407 -2.13584 1
gene 2 24 42 -0.730136 0 408 -0.730136 1
gene 1 27 29 0.940657 0 428 0.940657 1
gene 3 18 51 0.636158 0 433 0.636158 1
gene 3 51 42 0.40521 0 434 0.40521 1
gene 1 17 53 0.696356 0 440 0.696356 1
gene 1 53 34 -1.10064 0 441 -1.10064 1
gene 1 22 67 1.24241 0 473 1.24241 1
gene 1 67 34 3.63107 0 474 3.63107 1
gene 2 25 33 -0.70822 0 475 -0.70822 1
gene 2 18 99 0.127491 0 559 0.127491 1
gene 2 99 32 -2.89239 0 560 -2.89239 1
gene 2 12 112 -3.99609 0 590 -3.99609 1
gene 2 112 39 2.09502 0 591 2.09502 1
gene 1 20 140 0.213172 0 670 0.213172 1
gene 1 140 27 1.01703 0 671 1.01703 1
gene 2 8 154 -0.367519 0 708 -0.367519 1
gene 2 154 37 -0.0645848 0 709 -0.0645848 1
gene 2 12 169 -0.981475 0 751 -0.981475 1
gene 2 169 34 -0.982467 0 752 -0.982467 1
gene 3 17 51 -4.36201 0 773 -4.36201 1
gene 2 10 53 -0.000194555 0 858 -0.000194555 1
gene 3 112 30 2.00795 0 892 2.00795 1
gene 3 25 29 0.273827 0 908 0.273827 1
gene 2 24 239 -0.636174 0 950 -0.636174 1
gene 2 239 34 -0.221335 0 951 -0.221335 1
gene 3 7 245 1.24995 0 966 1.24995 1
gene 3 245 37 3.30653 0 967 3.30653 1
gene 1 42 27 0.732444 0 978 0.732444 1
gene 3 10 264 1.30251 0 1019 1.30251 1
gene 3 264 39 3.46026 0 1020 3.46026 1
gene 1 99 169 -1.67951 0 1056 -1.67951 1
gene 1 38 51 -0.8081 0 1061 -0.8081 1
genomeend 0
