genomestart 1
trait 1 0.1 0 0 0 0 0 0 0
trait 2 0.2 0 0 0 0 0 0 0
trait 3 0.3 0 0 0 0 0 0 0
node 1 0 1 3
node 2 0 1 1
node 3 0 1 1
node 4 0 1 1
node 5 0 1 1
node 6 0 1 1
node 7 0 1 1
node 8 0 1 1
node 9 0 1 1
node 10 0 1 1
node 11 0 1 1
node 12 0 1 1
node 13 0 1 1
node 14 0 1 1
node 15 0 1 1
node 16 0 1 1
node 17 0 1 1
node 18 0 1 1
node 19 0 1 1
node 20 0 1 1
node 21 0 1 1
node 22 0 1 1
node 23 0 1 1
node 24 0 1 1
node 25 0 1 1
node 26 0 1 1
node 27 0 1 1
node 28 0 1 1
node 29 0 1 1
node 30 0 1 1
node 31 0 1 1
node 32 0 1 1
node 33 0 1 1
node 34 0 1 1
node 35 0 1 1
node 36 0 1 1
node 37 0 1 1
node 38 0 1 1
node 39 0 0 2
node 40 0 0 2
node 41 0 0 2
node 42 0 0 2
node 43 0 0 2
node 44 0 0 2
node 45 0 0 2
node 46 0 0 2
node 47 0 0 2
node 48 0 0 2
node 49 0 0 2
node 50 0 0 2
node 51 0 0 2
node 52 0 0 2
node 53 0 0 2
node 54 0 0 2
node 55 0 0 2
node 56 0 0 2
node 57 0 0 2
node 58 0 0 2

gene 1 1 39 0.0 0 1 0 1
gene 1 1 40 0.0 0 2 0 1
gene 1 1 41 0.0 0 3 0 1
gene 1 1 42 0.0 0 4 0 1
gene 1 1 43 0.0 0 5 0 1
gene 1 1 44 0.0 0 6 0 1
gene 1 1 45 0.0 0 7 0 1
gene 1 1 46 0.0 0 8 0 1
gene 1 1 47 0.0 0 9 0 1
gene 1 1 48 0.0 0 10 0 1
gene 1 1 49 0.0 0 11 0 1
gene 1 1 50 0.0 0 12 0 1
gene 1 1 51 0.0 0 13 0 1
gene 1 1 52 0.0 0 14 0 1
gene 1 1 53 0.0 0 15 0 1
gene 1 1 54 0.0 0 16 0 1
gene 1 1 55 0.0 0 17 0 1
gene 1 1 56 0.0 0 18 0 1
gene 1 1 57 0.0 0 19 0 1
gene 1 1 58 0.0 0 20 0 1
gene 1 2 39 0.0 0 21 0 1
gene 1 2 40 0.0 0 22 0 1
gene 1 2 41 0.0 0 23 0 1
gene 1 2 42 0.0 0 24 0 1
gene 1 2 43 0.0 0 25 0 1
gene 1 2 44 0.0 0 26 0 1
gene 1 2 45 0.0 0 27 0 1
gene 1 2 46 0.0 0 28 0 1
gene 1 2 47 0.0 0 29 0 1
gene 1 2 48 0.0 0 30 0 1
gene 1 2 49 0.0 0 31 0 1
gene 1 2 50 0.0 0 32 0 1
gene 1 2 51 0.0 0 33 0 1
gene 1 2 52 0.0 0 34 0 1
gene 1 2 53 0.0 0 35 0 1
gene 1 2 54 0.0 0 36 0 1
gene 1 2 55 0.0 0 37 0 1
gene 1 2 56 0.0 0 38 0 1
gene 1 2 57 0.0 0 39 0 1
gene 1 2 58 0.0 0 40 0 1
gene 1 3 39 0.0 0 41 0 1
gene 1 3 40 0.0 0 42 0 1
gene 1 3 41 0.0 0 43 0 1
gene 1 3 42 0.0 0 44 0 1
gene 1 3 43 0.0 0 45 0 1
gene 1 3 44 0.0 0 46 0 1
gene 1 3 45 0.0 0 47 0 1
gene 1 3 46 0.0 0 48 0 1
gene 1 3 47 0.0 0 49 0 1
gene 1 3 48 0.0 0 50 0 1
gene 1 3 49 0.0 0 51 0 1
gene 1 3 50 0.0 0 52 0 1
gene 1 3 51 0.0 0 53 0 1
gene 1 3 52 0.0 0 54 0 1
gene 1 3 53 0.0 0 55 0 1
gene 1 3 54 0.0 0 56 0 1
gene 1 3 55 0.0 0 57 0 1
gene 1 3 56 0.0 0 58 0 1
gene 1 3 57 0.0 0 59 0 1
gene 1 3 58 0.0 0 60 0 1
gene 1 4 39 0.0 0 61 0 1
gene 1 4 40 0.0 0 62 0 1
gene 1 4 41 0.0 0 63 0 1
gene 1 4 42 0.0 0 64 0 1
gene 1 4 43 0.0 0 65 0 1
gene 1 4 44 0.0 0 66 0 1
gene 1 4 45 0.0 0 67 0 1
gene 1 4 46 0.0 0 68 0 1
gene 1 4 47 0.0 0 69 0 1
gene 1 4 48 0.0 0 70 0 1
gene 1 4 49 0.0 0 71 0 1
gene 1 4 50 0.0 0 72 0 1
gene 1 4 51 0.0 0 73 0 1
gene 1 4 52 0.0 0 74 0 1
gene 1 4 53 0.0 0 75 0 1
gene 1 4 54 0.0 0 76 0 1
gene 1 4 55 0.0 0 77 0 1
gene 1 4 56 0.0 0 78 0 1
gene 1 4 57 0.0 0 79 0 1
gene 1 4 58 0.0 0 80 0 1
gene 1 5 39 0.0 0 81 0 1
gene 1 5 40 0.0 0 82 0 1
gene 1 5 41 0.0 0 83 0 1
gene 1 5 42 0.0 0 84 0 1
gene 1 5 43 0.0 0 85 0 1
gene 1 5 44 0.0 0 86 0 1
gene 1 5 45 0.0 0 87 0 1
gene 1 5 46 0.0 0 88 0 1
gene 1 5 47 0.0 0 89 0 1
gene 1 5 48 0.0 0 90 0 1
gene 1 5 49 0.0 0 91 0 1
gene 1 5 50 0.0 0 92 0 1
gene 1 5 51 0.0 0 93 0 1
gene 1 5 52 0.0 0 94 0 1
gene 1 5 53 0.0 0 95 0 1
gene 1 5 54 0.0 0 96 0 1
gene 1 5 55 0.0 0 97 0 1
gene 1 5 56 0.0 0 98 0 1
gene 1 5 57 0.0 0 99 0 1
gene 1 5 58 0.0 0 100 0 1
gene 1 6 39 0.0 0 101 0 1
gene 1 6 40 0.0 0 102 0 1
gene 1 6 41 0.0 0 103 0 1
gene 1 6 42 0.0 0 104 0 1
gene 1 6 43 0.0 0 105 0 1
gene 1 6 44 0.0 0 106 0 1
gene 1 6 45 0.0 0 107 0 1
gene 1 6 46 0.0 0 108 0 1
gene 1 6 47 0.0 0 109 0 1
gene 1 6 48 0.0 0 110 0 1
gene 1 6 49 0.0 0 111 0 1
gene 1 6 50 0.0 0 112 0 1
gene 1 6 51 0.0 0 113 0 1
gene 1 6 52 0.0 0 114 0 1
gene 1 6 53 0.0 0 115 0 1
gene 1 6 54 0.0 0 116 0 1
gene 1 6 55 0.0 0 117 0 1
gene 1 6 56 0.0 0 118 0 1
gene 1 6 57 0.0 0 119 0 1
gene 1 6 58 0.0 0 120 0 1
gene 1 7 39 0.0 0 121 0 1
gene 1 7 40 0.0 0 122 0 1
gene 1 7 41 0.0 0 123 0 1
gene 1 7 42 0.0 0 124 0 1
gene 1 7 43 0.0 0 125 0 1
gene 1 7 44 0.0 0 126 0 1
gene 1 7 45 0.0 0 127 0 1
gene 1 7 46 0.0 0 128 0 1
gene 1 7 47 0.0 0 129 0 1
gene 1 7 48 0.0 0 130 0 1
gene 1 7 49 0.0 0 131 0 1
gene 1 7 50 0.0 0 132 0 1
gene 1 7 51 0.0 0 133 0 1
gene 1 7 52 0.0 0 134 0 1
gene 1 7 53 0.0 0 135 0 1
gene 1 7 54 0.0 0 136 0 1
gene 1 7 55 0.0 0 137 0 1
gene 1 7 56 0.0 0 138 0 1
gene 1 7 57 0.0 0 139 0 1
gene 1 7 58 0.0 0 140 0 1
gene 1 8 39 0.0 0 141 0 1
gene 1 8 40 0.0 0 142 0 1
gene 1 8 41 0.0 0 143 0 1
gene 1 8 42 0.0 0 144 0 1
gene 1 8 43 0.0 0 145 0 1
gene 1 8 44 0.0 0 146 0 1
gene 1 8 45 0.0 0 147 0 1
gene 1 8 46 0.0 0 148 0 1
gene 1 8 47 0.0 0 149 0 1
gene 1 8 48 0.0 0 150 0 1
gene 1 8 49 0.0 0 151 0 1
gene 1 8 50 0.0 0 152 0 1
gene 1 8 51 0.0 0 153 0 1
gene 1 8 52 0.0 0 154 0 1
gene 1 8 53 0.0 0 155 0 1
gene 1 8 54 0.0 0 156 0 1
gene 1 8 55 0.0 0 157 0 1
gene 1 8 56 0.0 0 158 0 1
gene 1 8 57 0.0 0 159 0 1
gene 1 8 58 0.0 0 160 0 1
gene 1 9 39 0.0 0 161 0 1
gene 1 9 40 0.0 0 162 0 1
gene 1 9 41 0.0 0 163 0 1
gene 1 9 42 0.0 0 164 0 1
gene 1 9 43 0.0 0 165 0 1
gene 1 9 44 0.0 0 166 0 1
gene 1 9 45 0.0 0 167 0 1
gene 1 9 46 0.0 0 168 0 1
gene 1 9 47 0.0 0 169 0 1
gene 1 9 48 0.0 0 170 0 1
gene 1 9 49 0.0 0 171 0 1
gene 1 9 50 0.0 0 172 0 1
gene 1 9 51 0.0 0 173 0 1
gene 1 9 52 0.0 0 174 0 1
gene 1 9 53 0.0 0 175 0 1
gene 1 9 54 0.0 0 176 0 1
gene 1 9 55 0.0 0 177 0 1
gene 1 9 56 0.0 0 178 0 1
gene 1 9 57 0.0 0 179 0 1
gene 1 9 58 0.0 0 180 0 1
gene 1 10 39 0.0 0 181 0 1
gene 1 10 40 0.0 0 182 0 1
gene 1 10 41 0.0 0 183 0 1
gene 1 10 42 0.0 0 184 0 1
gene 1 10 43 0.0 0 185 0 1
gene 1 10 44 0.0 0 186 0 1
gene 1 10 45 0.0 0 187 0 1
gene 1 10 46 0.0 0 188 0 1
gene 1 10 47 0.0 0 189 0 1
gene 1 10 48 0.0 0 190 0 1
gene 1 10 49 0.0 0 191 0 1
gene 1 10 50 0.0 0 192 0 1
gene 1 10 51 0.0 0 193 0 1
gene 1 10 52 0.0 0 194 0 1
gene 1 10 53 0.0 0 195 0 1
gene 1 10 54 0.0 0 196 0 1
gene 1 10 55 0.0 0 197 0 1
gene 1 10 56 0.0 0 198 0 1
gene 1 10 57 0.0 0 199 0 1
gene 1 10 58 0.0 0 200 0 1
gene 1 11 39 0.0 0 201 0 1
gene 1 11 40 0.0 0 202 0 1
gene 1 11 41 0.0 0 203 0 1
gene 1 11 42 0.0 0 204 0 1
gene 1 11 43 0.0 0 205 0 1
gene 1 11 44 0.0 0 206 0 1
gene 1 11 45 0.0 0 207 0 1
gene 1 11 46 0.0 0 208 0 1
gene 1 11 47 0.0 0 209 0 1
gene 1 11 48 0.0 0 210 0 1
gene 1 11 49 0.0 0 211 0 1
gene 1 11 50 0.0 0 212 0 1
gene 1 11 51 0.0 0 213 0 1
gene 1 11 52 0.0 0 214 0 1
gene 1 11 53 0.0 0 215 0 1
gene 1 11 54 0.0 0 216 0 1
gene 1 11 55 0.0 0 217 0 1
gene 1 11 56 0.0 0 218 0 1
gene 1 11 57 0.0 0 219 0 1
gene 1 11 58 0.0 0 220 0 1
gene 1 12 39 0.0 0 221 0 1
gene 1 12 40 0.0 0 222 0 1
gene 1 12 41 0.0 0 223 0 1
gene 1 12 42 0.0 0 224 0 1
gene 1 12 43 0.0 0 225 0 1
gene 1 12 44 0.0 0 226 0 1
gene 1 12 45 0.0 0 227 0 1
gene 1 12 46 0.0 0 228 0 1
gene 1 12 47 0.0 0 229 0 1
gene 1 12 48 0.0 0 230 0 1
gene 1 12 49 0.0 0 231 0 1
gene 1 12 50 0.0 0 232 0 1
gene 1 12 51 0.0 0 233 0 1
gene 1 12 52 0.0 0 234 0 1
gene 1 12 53 0.0 0 235 0 1
gene 1 12 54 0.0 0 236 0 1
gene 1 12 55 0.0 0 237 0 1
gene 1 12 56 0.0 0 238 0 1
gene 1 12 57 0.0 0 239 0 1
gene 1 12 58 0.0 0 240 0 1
gene 1 13 39 0.0 0 241 0 1
gene 1 13 40 0.0 0 242 0 1
gene 1 13 41 0.0 0 243 0 1
gene 1 13 42 0.0 0 244 0 1
gene 1 13 43 0.0 0 245 0 1
gene 1 13 44 0.0 0 246 0 1
gene 1 13 45 0.0 0 247 0 1
gene 1 13 46 0.0 0 248 0 1
gene 1 13 47 0.0 0 249 0 1
gene 1 13 48 0.0 0 250 0 1
gene 1 13 49 0.0 0 251 0 1
gene 1 13 50 0.0 0 252 0 1
gene 1 13 51 0.0 0 253 0 1
gene 1 13 52 0.0 0 254 0 1
gene 1 13 53 0.0 0 255 0 1
gene 1 13 54 0.0 0 256 0 1
gene 1 13 55 0.0 0 257 0 1
gene 1 13 56 0.0 0 258 0 1
gene 1 13 57 0.0 0 259 0 1
gene 1 13 58 0.0 0 260 0 1
gene 1 14 39 0.0 0 261 0 1
gene 1 14 40 0.0 0 262 0 1
gene 1 14 41 0.0 0 263 0 1
gene 1 14 42 0.0 0 264 0 1
gene 1 14 43 0.0 0 265 0 1
gene 1 14 44 0.0 0 266 0 1
gene 1 14 45 0.0 0 267 0 1
gene 1 14 46 0.0 0 268 0 1
gene 1 14 47 0.0 0 269 0 1
gene 1 14 48 0.0 0 270 0 1
gene 1 14 49 0.0 0 271 0 1
gene 1 14 50 0.0 0 272 0 1
gene 1 14 51 0.0 0 273 0 1
gene 1 14 52 0.0 0 274 0 1
gene 1 14 53 0.0 0 275 0 1
gene 1 14 54 0.0 0 276 0 1
gene 1 14 55 0.0 0 277 0 1
gene 1 14 56 0.0 0 278 0 1
gene 1 14 57 0.0 0 279 0 1
gene 1 14 58 0.0 0 280 0 1
gene 1 15 39 0.0 0 281 0 1
gene 1 15 40 0.0 0 282 0 1
gene 1 15 41 0.0 0 283 0 1
gene 1 15 42 0.0 0 284 0 1
gene 1 15 43 0.0 0 285 0 1
gene 1 15 44 0.0 0 286 0 1
gene 1 15 45 0.0 0 287 0 1
gene 1 15 46 0.0 0 288 0 1
gene 1 15 47 0.0 0 289 0 1
gene 1 15 48 0.0 0 290 0 1
gene 1 15 49 0.0 0 291 0 1
gene 1 15 50 0.0 0 292 0 1
gene 1 15 51 0.0 0 293 0 1
gene 1 15 52 0.0 0 294 0 1
gene 1 15 53 0.0 0 295 0 1
gene 1 15 54 0.0 0 296 0 1
gene 1 15 55 0.0 0 297 0 1
gene 1 15 56 0.0 0 298 0 1
gene 1 15 57 0.0 0 299 0 1
gene 1 15 58 0.0 0 300 0 1
gene 1 16 39 0.0 0 301 0 1
gene 1 16 40 0.0 0 302 0 1
gene 1 16 41 0.0 0 303 0 1
gene 1 16 42 0.0 0 304 0 1
gene 1 16 43 0.0 0 305 0 1
gene 1 16 44 0.0 0 306 0 1
gene 1 16 45 0.0 0 307 0 1
gene 1 16 46 0.0 0 308 0 1
gene 1 16 47 0.0 0 309 0 1
gene 1 16 48 0.0 0 310 0 1
gene 1 16 49 0.0 0 311 0 1
gene 1 16 50 0.0 0 312 0 1
gene 1 16 51 0.0 0 313 0 1
gene 1 16 52 0.0 0 314 0 1
gene 1 16 53 0.0 0 315 0 1
gene 1 16 54 0.0 0 316 0 1
gene 1 16 55 0.0 0 317 0 1
gene 1 16 56 0.0 0 318 0 1
gene 1 16 57 0.0 0 319 0 1
gene 1 16 58 0.0 0 320 0 1
gene 1 17 39 0.0 0 321 0 1
gene 1 17 40 0.0 0 322 0 1
gene 1 17 41 0.0 0 323 0 1
gene 1 17 42 0.0 0 324 0 1
gene 1 17 43 0.0 0 325 0 1
gene 1 17 44 0.0 0 326 0 1
gene 1 17 45 0.0 0 327 0 1
gene 1 17 46 0.0 0 328 0 1
gene 1 17 47 0.0 0 329 0 1
gene 1 17 48 0.0 0 330 0 1
gene 1 17 49 0.0 0 331 0 1
gene 1 17 50 0.0 0 332 0 1
gene 1 17 51 0.0 0 333 0 1
gene 1 17 52 0.0 0 334 0 1
gene 1 17 53 0.0 0 335 0 1
gene 1 17 54 0.0 0 336 0 1
gene 1 17 55 0.0 0 337 0 1
gene 1 17 56 0.0 0 338 0 1
gene 1 17 57 0.0 0 339 0 1
gene 1 17 58 0.0 0 340 0 1
gene 1 18 39 0.0 0 341 0 1
gene 1 18 40 0.0 0 342 0 1
gene 1 18 41 0.0 0 343 0 1
gene 1 18 42 0.0 0 344 0 1
gene 1 18 43 0.0 0 345 0 1
gene 1 18 44 0.0 0 346 0 1
gene 1 18 45 0.0 0 347 0 1
gene 1 18 46 0.0 0 348 0 1
gene 1 18 47 0.0 0 349 0 1
gene 1 18 48 0.0 0 350 0 1
gene 1 18 49 0.0 0 351 0 1
gene 1 18 50 0.0 0 352 0 1
gene 1 18 51 0.0 0 353 0 1
gene 1 18 52 0.0 0 354 0 1
gene 1 18 53 0.0 0 355 0 1
gene 1 18 54 0.0 0 356 0 1
gene 1 18 55 0.0 0 357 0 1
gene 1 18 56 0.0 0 358 0 1
gene 1 18 57 0.0 0 359 0 1
gene 1 18 58 0.0 0 360 0 1
gene 1 19 39 0.0 0 361 0 1
gene 1 19 40 0.0 0 362 0 1
gene 1 19 41 0.0 0 363 0 1
gene 1 19 42 0.0 0 364 0 1
gene 1 19 43 0.0 0 365 0 1
gene 1 19 44 0.0 0 366 0 1
gene 1 19 45 0.0 0 367 0 1
gene 1 19 46 0.0 0 368 0 1
gene 1 19 47 0.0 0 369 0 1
gene 1 19 48 0.0 0 370 0 1
gene 1 19 49 0.0 0 371 0 1
gene 1 19 50 0.0 0 372 0 1
gene 1 19 51 0.0 0 373 0 1
gene 1 19 52 0.0 0 374 0 1
gene 1 19 53 0.0 0 375 0 1
gene 1 19 54 0.0 0 376 0 1
gene 1 19 55 0.0 0 377 0 1
gene 1 19 56 0.0 0 378 0 1
gene 1 19 57 0.0 0 379 0 1
gene 1 19 58 0.0 0 380 0 1
gene 1 20 39 0.0 0 381 0 1
gene 1 20 40 0.0 0 382 0 1
gene 1 20 41 0.0 0 383 0 1
gene 1 20 42 0.0 0 384 0 1
gene 1 20 43 0.0 0 385 0 1
gene 1 20 44 0.0 0 386 0 1
gene 1 20 45 0.0 0 387 0 1
gene 1 20 46 0.0 0 388 0 1
gene 1 20 47 0.0 0 389 0 1
gene 1 20 48 0.0 0 390 0 1
gene 1 20 49 0.0 0 391 0 1
gene 1 20 50 0.0 0 392 0 1
gene 1 20 51 0.0 0 393 0 1
gene 1 20 52 0.0 0 394 0 1
gene 1 20 53 0.0 0 395 0 1
gene 1 20 54 0.0 0 396 0 1
gene 1 20 55 0.0 0 397 0 1
gene 1 20 56 0.0 0 398 0 1
gene 1 20 57 0.0 0 399 0 1
gene 1 20 58 0.0 0 400 0 1
gene 1 21 39 0.0 0 401 0 1
gene 1 21 40 0.0 0 402 0 1
gene 1 21 41 0.0 0 403 0 1
gene 1 21 42 0.0 0 404 0 1
gene 1 21 43 0.0 0 405 0 1
gene 1 21 44 0.0 0 406 0 1
gene 1 21 45 0.0 0 407 0 1
gene 1 21 46 0.0 0 408 0 1
gene 1 21 47 0.0 0 409 0 1
gene 1 21 48 0.0 0 410 0 1
gene 1 21 49 0.0 0 411 0 1
gene 1 21 50 0.0 0 412 0 1
gene 1 21 51 0.0 0 413 0 1
gene 1 21 52 0.0 0 414 0 1
gene 1 21 53 0.0 0 415 0 1
gene 1 21 54 0.0 0 416 0 1
gene 1 21 55 0.0 0 417 0 1
gene 1 21 56 0.0 0 418 0 1
gene 1 21 57 0.0 0 419 0 1
gene 1 21 58 0.0 0 420 0 1
gene 1 22 39 0.0 0 421 0 1
gene 1 22 40 0.0 0 422 0 1
gene 1 22 41 0.0 0 423 0 1
gene 1 22 42 0.0 0 424 0 1
gene 1 22 43 0.0 0 425 0 1
gene 1 22 44 0.0 0 426 0 1
gene 1 22 45 0.0 0 427 0 1
gene 1 22 46 0.0 0 428 0 1
gene 1 22 47 0.0 0 429 0 1
gene 1 22 48 0.0 0 430 0 1
gene 1 22 49 0.0 0 431 0 1
gene 1 22 50 0.0 0 432 0 1
gene 1 22 51 0.0 0 433 0 1
gene 1 22 52 0.0 0 434 0 1
gene 1 22 53 0.0 0 435 0 1
gene 1 22 54 0.0 0 436 0 1
gene 1 22 55 0.0 0 437 0 1
gene 1 22 56 0.0 0 438 0 1
gene 1 22 57 0.0 0 439 0 1
gene 1 22 58 0.0 0 440 0 1
gene 1 23 39 0.0 0 441 0 1
gene 1 23 40 0.0 0 442 0 1
gene 1 23 41 0.0 0 443 0 1
gene 1 23 42 0.0 0 444 0 1
gene 1 23 43 0.0 0 445 0 1
gene 1 23 44 0.0 0 446 0 1
gene 1 23 45 0.0 0 447 0 1
gene 1 23 46 0.0 0 448 0 1
gene 1 23 47 0.0 0 449 0 1
gene 1 23 48 0.0 0 450 0 1
gene 1 23 49 0.0 0 451 0 1
gene 1 23 50 0.0 0 452 0 1
gene 1 23 51 0.0 0 453 0 1
gene 1 23 52 0.0 0 454 0 1
gene 1 23 53 0.0 0 455 0 1
gene 1 23 54 0.0 0 456 0 1
gene 1 23 55 0.0 0 457 0 1
gene 1 23 56 0.0 0 458 0 1
gene 1 23 57 0.0 0 459 0 1
gene 1 23 58 0.0 0 460 0 1
gene 1 24 39 0.0 0 461 0 1
gene 1 24 40 0.0 0 462 0 1
gene 1 24 41 0.0 0 463 0 1
gene 1 24 42 0.0 0 464 0 1
gene 1 24 43 0.0 0 465 0 1
gene 1 24 44 0.0 0 466 0 1
gene 1 24 45 0.0 0 467 0 1
gene 1 24 46 0.0 0 468 0 1
gene 1 24 47 0.0 0 469 0 1
gene 1 24 48 0.0 0 470 0 1
gene 1 24 49 0.0 0 471 0 1
gene 1 24 50 0.0 0 472 0 1
gene 1 24 51 0.0 0 473 0 1
gene 1 24 52 0.0 0 474 0 1
gene 1 24 53 0.0 0 475 0 1
gene 1 24 54 0.0 0 476 0 1
gene 1 24 55 0.0 0 477 0 1
gene 1 24 56 0.0 0 478 0 1
gene 1 24 57 0.0 0 479 0 1
gene 1 24 58 0.0 0 480 0 1
gene 1 25 39 0.0 0 481 0 1
gene 1 25 40 0.0 0 482 0 1
gene 1 25 41 0.0 0 483 0 1
gene 1 25 42 0.0 0 484 0 1
gene 1 25 43 0.0 0 485 0 1
gene 1 25 44 0.0 0 486 0 1
gene 1 25 45 0.0 0 487 0 1
gene 1 25 46 0.0 0 488 0 1
gene 1 25 47 0.0 0 489 0 1
gene 1 25 48 0.0 0 490 0 1
gene 1 25 49 0.0 0 491 0 1
gene 1 25 50 0.0 0 492 0 1
gene 1 25 51 0.0 0 493 0 1
gene 1 25 52 0.0 0 494 0 1
gene 1 25 53 0.0 0 495 0 1
gene 1 25 54 0.0 0 496 0 1
gene 1 25 55 0.0 0 497 0 1
gene 1 25 56 0.0 0 498 0 1
gene 1 25 57 0.0 0 499 0 1
gene 1 25 58 0.0 0 500 0 1
gene 1 26 39 0.0 0 501 0 1
gene 1 26 40 0.0 0 502 0 1
gene 1 26 41 0.0 0 503 0 1
gene 1 26 42 0.0 0 504 0 1
gene 1 26 43 0.0 0 505 0 1
gene 1 26 44 0.0 0 506 0 1
gene 1 26 45 0.0 0 507 0 1
gene 1 26 46 0.0 0 508 0 1
gene 1 26 47 0.0 0 509 0 1
gene 1 26 48 0.0 0 510 0 1
gene 1 26 49 0.0 0 511 0 1
gene 1 26 50 0.0 0 512 0 1
gene 1 26 51 0.0 0 513 0 1
gene 1 26 52 0.0 0 514 0 1
gene 1 26 53 0.0 0 515 0 1
gene 1 26 54 0.0 0 516 0 1
gene 1 26 55 0.0 0 517 0 1
gene 1 26 56 0.0 0 518 0 1
gene 1 26 57 0.0 0 519 0 1
gene 1 26 58 0.0 0 520 0 1
gene 1 27 39 0.0 0 521 0 1
gene 1 27 40 0.0 0 522 0 1
gene 1 27 41 0.0 0 523 0 1
gene 1 27 42 0.0 0 524 0 1
gene 1 27 43 0.0 0 525 0 1
gene 1 27 44 0.0 0 526 0 1
gene 1 27 45 0.0 0 527 0 1
gene 1 27 46 0.0 0 528 0 1
gene 1 27 47 0.0 0 529 0 1
gene 1 27 48 0.0 0 530 0 1
gene 1 27 49 0.0 0 531 0 1
gene 1 27 50 0.0 0 532 0 1
gene 1 27 51 0.0 0 533 0 1
gene 1 27 52 0.0 0 534 0 1
gene 1 27 53 0.0 0 535 0 1
gene 1 27 54 0.0 0 536 0 1
gene 1 27 55 0.0 0 537 0 1
gene 1 27 56 0.0 0 538 0 1
gene 1 27 57 0.0 0 539 0 1
gene 1 27 58 0.0 0 540 0 1
gene 1 28 39 0.0 0 541 0 1
gene 1 28 40 0.0 0 542 0 1
gene 1 28 41 0.0 0 543 0 1
gene 1 28 42 0.0 0 544 0 1
gene 1 28 43 0.0 0 545 0 1
gene 1 28 44 0.0 0 546 0 1
gene 1 28 45 0.0 0 547 0 1
gene 1 28 46 0.0 0 548 0 1
gene 1 28 47 0.0 0 549 0 1
gene 1 28 48 0.0 0 550 0 1
gene 1 28 49 0.0 0 551 0 1
gene 1 28 50 0.0 0 552 0 1
gene 1 28 51 0.0 0 553 0 1
gene 1 28 52 0.0 0 554 0 1
gene 1 28 53 0.0 0 555 0 1
gene 1 28 54 0.0 0 556 0 1
gene 1 28 55 0.0 0 557 0 1
gene 1 28 56 0.0 0 558 0 1
gene 1 28 57 0.0 0 559 0 1
gene 1 28 58 0.0 0 560 0 1
gene 1 29 39 0.0 0 561 0 1
gene 1 29 40 0.0 0 562 0 1
gene 1 29 41 0.0 0 563 0 1
gene 1 29 42 0.0 0 564 0 1
gene 1 29 43 0.0 0 565 0 1
gene 1 29 44 0.0 0 566 0 1
gene 1 29 45 0.0 0 567 0 1
gene 1 29 46 0.0 0 568 0 1
gene 1 29 47 0.0 0 569 0 1
gene 1 29 48 0.0 0 570 0 1
gene 1 29 49 0.0 0 571 0 1
gene 1 29 50 0.0 0 572 0 1
gene 1 29 51 0.0 0 573 0 1
gene 1 29 52 0.0 0 574 0 1
gene 1 29 53 0.0 0 575 0 1
gene 1 29 54 0.0 0 576 0 1
gene 1 29 55 0.0 0 577 0 1
gene 1 29 56 0.0 0 578 0 1
gene 1 29 57 0.0 0 579 0 1
gene 1 29 58 0.0 0 580 0 1
gene 1 30 39 0.0 0 581 0 1
gene 1 30 40 0.0 0 582 0 1
gene 1 30 41 0.0 0 583 0 1
gene 1 30 42 0.0 0 584 0 1
gene 1 30 43 0.0 0 585 0 1
gene 1 30 44 0.0 0 586 0 1
gene 1 30 45 0.0 0 587 0 1
gene 1 30 46 0.0 0 588 0 1
gene 1 30 47 0.0 0 589 0 1
gene 1 30 48 0.0 0 590 0 1
gene 1 30 49 0.0 0 591 0 1
gene 1 30 50 0.0 0 592 0 1
gene 1 30 51 0.0 0 593 0 1
gene 1 30 52 0.0 0 594 0 1
gene 1 30 53 0.0 0 595 0 1
gene 1 30 54 0.0 0 596 0 1
gene 1 30 55 0.0 0 597 0 1
gene 1 30 56 0.0 0 598 0 1
gene 1 30 57 0.0 0 599 0 1
gene 1 30 58 0.0 0 600 0 1
gene 1 31 39 0.0 0 601 0 1
gene 1 31 40 0.0 0 602 0 1
gene 1 31 41 0.0 0 603 0 1
gene 1 31 42 0.0 0 604 0 1
gene 1 31 43 0.0 0 605 0 1
gene 1 31 44 0.0 0 606 0 1
gene 1 31 45 0.0 0 607 0 1
gene 1 31 46 0.0 0 608 0 1
gene 1 31 47 0.0 0 609 0 1
gene 1 31 48 0.0 0 610 0 1
gene 1 31 49 0.0 0 611 0 1
gene 1 31 50 0.0 0 612 0 1
gene 1 31 51 0.0 0 613 0 1
gene 1 31 52 0.0 0 614 0 1
gene 1 31 53 0.0 0 615 0 1
gene 1 31 54 0.0 0 616 0 1
gene 1 31 55 0.0 0 617 0 1
gene 1 31 56 0.0 0 618 0 1
gene 1 31 57 0.0 0 619 0 1
gene 1 31 58 0.0 0 620 0 1
gene 1 32 39 0.0 0 621 0 1
gene 1 32 40 0.0 0 622 0 1
gene 1 32 41 0.0 0 623 0 1
gene 1 32 42 0.0 0 624 0 1
gene 1 32 43 0.0 0 625 0 1
gene 1 32 44 0.0 0 626 0 1
gene 1 32 45 0.0 0 627 0 1
gene 1 32 46 0.0 0 628 0 1
gene 1 32 47 0.0 0 629 0 1
gene 1 32 48 0.0 0 630 0 1
gene 1 32 49 0.0 0 631 0 1
gene 1 32 50 0.0 0 632 0 1
gene 1 32 51 0.0 0 633 0 1
gene 1 32 52 0.0 0 634 0 1
gene 1 32 53 0.0 0 635 0 1
gene 1 32 54 0.0 0 636 0 1
gene 1 32 55 0.0 0 637 0 1
gene 1 32 56 0.0 0 638 0 1
gene 1 32 57 0.0 0 639 0 1
gene 1 32 58 0.0 0 640 0 1
gene 1 33 39 0.0 0 641 0 1
gene 1 33 40 0.0 0 642 0 1
gene 1 33 41 0.0 0 643 0 1
gene 1 33 42 0.0 0 644 0 1
gene 1 33 43 0.0 0 645 0 1
gene 1 33 44 0.0 0 646 0 1
gene 1 33 45 0.0 0 647 0 1
gene 1 33 46 0.0 0 648 0 1
gene 1 33 47 0.0 0 649 0 1
gene 1 33 48 0.0 0 650 0 1
gene 1 33 49 0.0 0 651 0 1
gene 1 33 50 0.0 0 652 0 1
gene 1 33 51 0.0 0 653 0 1
gene 1 33 52 0.0 0 654 0 1
gene 1 33 53 0.0 0 655 0 1
gene 1 33 54 0.0 0 656 0 1
gene 1 33 55 0.0 0 657 0 1
gene 1 33 56 0.0 0 658 0 1
gene 1 33 57 0.0 0 659 0 1
gene 1 33 58 0.0 0 660 0 1
gene 1 34 39 0.0 0 661 0 1
gene 1 34 40 0.0 0 662 0 1
gene 1 34 41 0.0 0 663 0 1
gene 1 34 42 0.0 0 664 0 1
gene 1 34 43 0.0 0 665 0 1
gene 1 34 44 0.0 0 666 0 1
gene 1 34 45 0.0 0 667 0 1
gene 1 34 46 0.0 0 668 0 1
gene 1 34 47 0.0 0 669 0 1
gene 1 34 48 0.0 0 670 0 1
gene 1 34 49 0.0 0 671 0 1
gene 1 34 50 0.0 0 672 0 1
gene 1 34 51 0.0 0 673 0 1
gene 1 34 52 0.0 0 674 0 1
gene 1 34 53 0.0 0 675 0 1
gene 1 34 54 0.0 0 676 0 1
gene 1 34 55 0.0 0 677 0 1
gene 1 34 56 0.0 0 678 0 1
gene 1 34 57 0.0 0 679 0 1
gene 1 34 58 0.0 0 680 0 1
gene 1 35 39 0.0 0 681 0 1
gene 1 35 40 0.0 0 682 0 1
gene 1 35 41 0.0 0 683 0 1
gene 1 35 42 0.0 0 684 0 1
gene 1 35 43 0.0 0 685 0 1
gene 1 35 44 0.0 0 686 0 1
gene 1 35 45 0.0 0 687 0 1
gene 1 35 46 0.0 0 688 0 1
gene 1 35 47 0.0 0 689 0 1
gene 1 35 48 0.0 0 690 0 1
gene 1 35 49 0.0 0 691 0 1
gene 1 35 50 0.0 0 692 0 1
gene 1 35 51 0.0 0 693 0 1
gene 1 35 52 0.0 0 694 0 1
gene 1 35 53 0.0 0 695 0 1
gene 1 35 54 0.0 0 696 0 1
gene 1 35 55 0.0 0 697 0 1
gene 1 35 56 0.0 0 698 0 1
gene 1 35 57 0.0 0 699 0 1
gene 1 35 58 0.0 0 700 0 1
gene 1 36 39 0.0 0 701 0 1
gene 1 36 40 0.0 0 702 0 1
gene 1 36 41 0.0 0 703 0 1
gene 1 36 42 0.0 0 704 0 1
gene 1 36 43 0.0 0 705 0 1
gene 1 36 44 0.0 0 706 0 1
gene 1 36 45 0.0 0 707 0 1
gene 1 36 46 0.0 0 708 0 1
gene 1 36 47 0.0 0 709 0 1
gene 1 36 48 0.0 0 710 0 1
gene 1 36 49 0.0 0 711 0 1
gene 1 36 50 0.0 0 712 0 1
gene 1 36 51 0.0 0 713 0 1
gene 1 36 52 0.0 0 714 0 1
gene 1 36 53 0.0 0 715 0 1
gene 1 36 54 0.0 0 716 0 1
gene 1 36 55 0.0 0 717 0 1
gene 1 36 56 0.0 0 718 0 1
gene 1 36 57 0.0 0 719 0 1
gene 1 36 58 0.0 0 720 0 1
gene 1 37 39 0.0 0 721 0 1
gene 1 37 40 0.0 0 722 0 1
gene 1 37 41 0.0 0 723 0 1
gene 1 37 42 0.0 0 724 0 1
gene 1 37 43 0.0 0 725 0 1
gene 1 37 44 0.0 0 726 0 1
gene 1 37 45 0.0 0 727 0 1
gene 1 37 46 0.0 0 728 0 1
gene 1 37 47 0.0 0 729 0 1
gene 1 37 48 0.0 0 730 0 1
gene 1 37 49 0.0 0 731 0 1
gene 1 37 50 0.0 0 732 0 1
gene 1 37 51 0.0 0 733 0 1
gene 1 37 52 0.0 0 734 0 1
gene 1 37 53 0.0 0 735 0 1
gene 1 37 54 0.0 0 736 0 1
gene 1 37 55 0.0 0 737 0 1
gene 1 37 56 0.0 0 738 0 1
gene 1 37 57 0.0 0 739 0 1
gene 1 37 58 0.0 0 740 0 1
gene 1 38 39 0.0 0 741 0 1
gene 1 38 40 0.0 0 742 0 1
gene 1 38 41 0.0 0 743 0 1
gene 1 38 42 0.0 0 744 0 1
gene 1 38 43 0.0 0 745 0 1
gene 1 38 44 0.0 0 746 0 1
gene 1 38 45 0.0 0 747 0 1
gene 1 38 46 0.0 0 748 0 1
gene 1 38 47 0.0 0 749 0 1
gene 1 38 48 0.0 0 750 0 1
gene 1 38 49 0.0 0 751 0 1
gene 1 38 50 0.0 0 752 0 1
gene 1 38 51 0.0 0 753 0 1
gene 1 38 52 0.0 0 754 0 1
gene 1 38 53 0.0 0 755 0 1
gene 1 38 54 0.0 0 756 0 1
gene 1 38 55 0.0 0 757 0 1
gene 1 38 56 0.0 0 758 0 1
gene 1 38 57 0.0 0 759 0 1
gene 1 38 58 0.0 0 760 0 1
genomeend 1
